{"model":"vijaymohan/gpt2-tinystories-from-scratch-10m","note":"Linear weight slices and real activation rows from TinyStories GPT-2 forward passes.","tokens_per_text":96,"calibration_texts":[0,1],"heldout_texts":[2,3],"layers":[{"name":"h0_attn_q","source_layer":0,"source_module":"attn_q","input_slice":[0,160],"output_slice":[0,112],"weight":[[-0.003269,0.031234,-0.020546,-0.044864,-0.005881,-0.020762,0.016749,-0.020074,-0.036478,-0.03559,-0.015568,-0.02291,0.01221,0.01021,-0.016822,0.012665,-0.022173,0.002661,0.033917,-0.029669,0.037491,0.014186,0.002501,0.010227,-0.011363,0.049954,0.029127,-0.002935,-0.04489,-0.015228,-0.021676,0.01947,-0.012698,-0.004322,0.012871,-0.030767,0.010606,0.058571,0.020807,-0.031648,-0.028287,0.03279,0.031762,0.010073,0.032303,0.004545,0.016825,0.024922,0.000603,-0.014574,0.028429,0.004173,0.023161,-0.021769,0.011914,-0.02891,-0.012344,0.048783,-0.017547,0.008524,-0.00956,-0.007014,-0.022156,0.010204,-0.021381,-0.020117,-0.040046,0.035758,-1e-05,-0.017697,0.011112,0.00838,0.034468,-0.042348,-0.015809,-0.015585,0.008003,-0.003158,0.007632,0.01781,-0.00153,0.000187,0.046135,-0.023038,-0.00873,0.010753,-0.012521,0.019716,0.044163,0.028862,0.011063,0.004986,-0.023347,0.00647,0.010824,-0.003767,-0.04708,-0.053989,-0.082808,-0.021257,0.000803,0.012874,-0.061908,0.011602,-0.001286,-0.022768,-0.028561,-0.021732,0.026135,0.030368,-0.009452,-0.004616],[0.001812,0.02326,0.005066,0.002951,-0.032423,0.024414,0.028469,0.02208,-0.00567,0.008072,0.029225,0.003847,0.010898,-0.01655,0.002646,-0.000211,-0.017948,0.022594,-0.012396,-0.002382,-0.014831,-0.001867,-0.018863,-0.001191,-0.024879,-0.012857,-0.003793,0.039569,-0.003654,0.02182,-0.001987,0.011457,0.025125,-0.01882,-0.023688,0.002904,-0.003522,-0.02532,-0.021521,-0.017109,0.016698,-0.016041,-0.025236,0.011153,0.005482,-0.002412,-0.014599,0.0148,-0.011816,0.032866,-0.00611,0.004601,-0.038572,-0.022685,-0.004718,0.006576,-0.023769,0.001194,-0.031486,-0.019783,0.022377,0.008567,0.015528,0.010453,0.007261,-0.024548,0.011392,0.006388,0.007387,0.000124,0.008382,0.017917,-0.021329,0.011029,-0.013317,-0.004703,0.015293,-0.008179,-0.016336,-0.014179,0.004713,-0.011212,-0.026292,-0.013568,-0.00545,0.004729,-2.7e-05,-0.015909,0.000327,-0.003572,-0.000858,0.002344,0.008331,0.015809,0.004584,0.016364,-0.020212,0.081749,0.050238,-0.005794,-0.032822,-0.042919,0.001983,0.020118,-0.021823,0.015372,0.022066,0.004873,-0.005824,-0.01907,0.015056,0.002081],[-0.010526,-0.032487,0.02533,-0.016147,-0.015315,0.035507,-0.032258,0.012767,-0.0001,-0.010698,0.014592,-0.031901,-0.021265,0.024534,-0.042618,-0.007071,-0.018291,0.007482,-0.011369,-0.014979,-0.026391,0.008331,-0.034016,0.01243,-0.015439,-0.015557,0.032268,-0.01432,-0.024583,0.022506,0.002885,0.00077,-0.009503,-0.003527,-0.023453,0.003332,0.003633,-0.001896,0.023533,0.004687,0.005543,-0.007227,-0.02279,0.009261,-0.00547,0.012972,0.004605,-0.017479,-0.011397,-0.002582,-0.009357,-0.004581,-0.01462,-0.013272,-0.002517,-0.020935,-0.018928,-0.00088,-0.00668,0.019022,-0.016869,-0.001492,0.022052,-0.013624,0.002626,0.027892,-0.009997,0.01541,0.009952,-0.005767,-0.033046,0.011273,0.002338,0.005697,-0.012066,-0.019317,0.009441,0.005277,-0.011158,-0.008566,0.000198,-0.003293,0.009983,-0.0124,-0.011799,-0.007078,-0.027769,-0.029305,-0.008235,0.018011,0.011122,-0.02126,-0.007538,0.012883,-0.012519,-0.005555,-0.012042,-0.003981,-0.005044,-0.03082,-0.00528,-0.004264,-0.003031,0.020684,-0.010211,-0.01546,-0.00823,-0.016105,0.019988,-0.007478,0.006809,-0.010333],[0.001414,-0.02497,0.031243,-0.00441,0.026859,0.039935,-0.035767,0.02171,-0.018732,0.035076,0.031087,-0.072859,-0.018017,0.09834,-0.041094,-0.035804,0.010056,-0.028985,-0.038148,-0.029304,-0.027446,0.045895,-0.04751,-0.023005,-0.037048,-0.000793,-0.015918,-0.009381,-0.055518,0.032487,-0.024226,0.01755,-0.023006,0.023399,-3.8e-05,0.018549,0.011818,-0.009687,0.010642,-0.053782,0.035617,0.007144,-0.004843,-0.010438,0.039752,0.03283,-0.006105,0.007524,-0.000271,0.067182,0.024354,0.001006,-0.007333,-0.037574,0.024743,-0.014874,-0.022456,-0.028625,0.004578,-0.011058,0.008783,-0.05076,0.052003,-0.085255,0.005424,0.028508,-0.002904,0.033,0.038622,0.005579,-0.039737,0.020835,0.001697,0.02686,-0.041247,-0.089191,0.074124,-0.042225,-0.053036,-0.08524,0.058573,0.003809,-0.001278,0.021232,-0.02659,-0.033979,-0.060128,-0.06037,0.033562,-0.008659,-0.007902,-0.038652,-0.006221,0.048014,-0.026039,-0.016614,-0.065067,0.040953,-0.047987,0.006237,0.014854,0.050147,0.020705,0.020837,-0.046349,-0.037227,0.035996,-0.020051,0.007239,0.019985,0.088965,-0.049559],[0.039451,-0.001853,-0.011165,-0.014673,-0.015562,0.012954,0.01213,0.002141,-0.003739,0.006364,-0.020522,-0.025159,0.010258,-0.01271,-0.01292,-0.022672,-0.001839,-0.013856,0.000563,0.01141,-0.011647,0.016382,0.004104,0.016151,-0.009966,0.037925,0.02416,-0.005691,-0.032889,-0.023011,-0.009348,0.009848,-0.017354,-0.051538,-0.016102,-0.022094,0.024778,0.019189,0.004712,0.009244,-0.010397,0.053079,0.026458,0.025703,0.0067,0.015174,-0.025838,0.018076,-0.025204,-0.038065,-0.003172,-0.013446,-0.017798,0.00836,-0.001401,-0.032661,0.011532,0.022406,0.024255,0.026111,0.028906,0.012108,0.006503,-0.008811,-0.029972,-0.002668,-0.001311,0.018204,0.018751,-0.020628,-0.010006,-0.017052,0.003471,0.011035,0.002513,-0.010252,0.020127,-0.00587,0.009466,-0.002423,0.02563,-0.020603,0.007071,-0.030306,0.008919,0.000872,-0.023376,-0.003717,0.003822,0.028699,0.009127,0.009848,-0.00688,0.017668,-0.022751,-0.022225,-0.044523,-0.059764,-0.036414,-0.007014,2e-06,-0.027847,-0.02237,-0.024479,-0.009188,0.006646,0.022271,-0.021508,-0.023793,0.010556,-0.010969,-0.011554],[0.019524,-0.009497,-0.004632,-0.007047,-0.001957,-0.00276,-0.016751,-0.009555,-0.016217,0.015689,-0.004419,-0.004397,-0.016744,0.005461,-0.01217,-0.003695,-0.030238,-0.012409,-0.002774,-0.0158,0.007276,0.007103,-0.001594,0.000783,-0.002163,0.022996,0.00515,-0.008896,0.006087,0.002795,0.003947,0.009895,-0.032607,0.003005,-0.017764,0.001519,-0.006998,-0.006162,0.007434,-0.002361,-8e-06,-0.006221,0.016542,-0.002444,-0.019776,0.005234,0.007321,0.031577,-0.00457,-0.012665,-0.005412,-0.020094,-0.042284,0.022593,0.009063,0.007485,0.016235,0.006306,-0.005618,0.041225,-0.010623,0.0185,-0.020588,-0.014374,-0.016186,-0.006065,-0.005332,0.019944,0.008692,-0.003729,0.007577,-0.002607,0.026663,-0.014481,0.001023,-0.008607,-0.001125,0.017408,-0.001155,0.013497,-0.01505,0.002701,0.003876,0.000469,-0.0049,-0.005572,0.0007,0.021722,-0.001608,-0.014654,0.002535,0.029216,-0.006758,0.016866,-0.007655,-0.012758,-0.01378,-0.005409,-0.025843,-0.036962,0.015379,-0.027017,0.001494,-0.000592,0.015375,0.01484,0.023032,-0.04093,-0.01324,0.004917,0.002448,0.020338],[-0.013025,0.001455,-0.025454,-0.033764,-0.023629,-0.044621,0.037541,-0.004603,-0.007913,0.000572,0.003918,0.022252,0.010856,-0.001534,-0.038319,0.023199,-0.023512,0.022006,-0.017548,-0.028411,0.016455,-0.000977,0.002866,0.025005,-0.010214,0.026727,0.053304,-6.1e-05,0.006605,-0.003812,-0.023959,0.001348,-0.020893,0.006414,-0.034804,-0.021059,0.005977,0.010493,0.038265,-0.026138,-0.018656,0.005377,0.024273,0.015407,-0.020388,-0.007716,0.025503,-0.013259,0.000721,-0.01364,-0.012613,-0.022379,0.023217,-0.01168,0.009674,-0.003433,-0.018014,0.035497,-0.022018,0.01847,0.003529,0.052218,-0.004251,0.020221,-0.010197,-0.006603,-0.025757,0.011145,0.018059,-0.024862,0.011876,-0.026313,0.018474,-0.02458,-0.018117,0.006138,-0.009204,0.02287,0.009875,0.008551,-0.028087,-0.042663,0.038649,-0.023187,0.020898,0.015749,0.007314,0.006046,0.038869,0.008846,0.035432,-0.00855,-0.009349,-0.030236,-0.002899,-0.035857,-0.024923,-0.003376,-0.024163,-0.044906,-0.025435,-0.030469,0.015463,-0.027995,0.008554,-0.013425,-0.033337,-0.007289,0.040051,0.013991,-0.040357,0.000731],[-0.008623,-0.020423,-0.014012,0.009726,0.01917,0.000676,-0.007615,-0.023753,0.017694,0.009403,-0.020891,0.005206,-0.013564,0.004224,-0.001499,-0.009455,0.022206,0.009886,-0.028996,0.002332,0.014081,0.008025,0.008068,-0.000915,0.038462,-0.004316,-0.028277,0.001729,0.024476,-0.01117,0.025795,-0.039114,0.005183,-0.001742,0.008251,0.002041,0.000691,-0.024891,0.004209,0.025029,0.009824,0.018397,-0.016593,0.007065,-0.011342,-0.011983,-0.010683,-0.011157,0.007744,-0.029222,0.005776,0.041067,-0.014147,0.016785,-0.020978,0.021918,0.016306,-0.016591,0.01302,-0.028355,0.002489,-0.006477,0.003637,0.005572,0.014687,0.014374,0.000209,-0.004572,-0.013908,0.018097,0.020554,0.008186,-0.014683,0.00282,0.002554,0.03906,-0.015178,0.006682,-0.009381,-0.005977,-0.018222,-0.016386,-0.006677,-0.011102,0.01395,-0.008435,0.001433,0.000236,-0.007276,-0.018422,-0.008487,0.007336,0.017028,-0.013295,-0.004801,0.013085,0.004797,-0.014841,-0.012726,-0.008551,-0.006601,0.007239,-0.018976,-0.008878,-0.004477,0.030945,0.027711,0.005131,-0.030904,0.010301,-0.050967,0.006055],[0.004911,-0.007834,0.010274,0.000499,0.011951,-0.004888,0.003108,0.031154,-0.007424,-0.009195,-0.011767,0.016175,-0.011403,0.03168,-0.013451,-0.00231,0.017676,0.006348,-0.006887,0.011777,0.011784,0.02122,0.022366,-0.004965,0.029158,-0.00965,0.000666,0.00609,-0.000138,-0.005152,0.00981,0.034351,-0.000592,-0.005112,0.0337,-0.009036,0.017793,0.020988,-0.018561,-0.00094,0.016558,-0.041419,-0.013164,-0.032255,0.014927,-0.014274,0.003666,0.00292,0.021728,0.016913,-0.006306,0.014427,-0.013588,0.007142,-0.014171,-0.013925,-0.005777,-0.028902,0.014461,-0.000568,0.019235,0.010725,0.00462,0.026323,-0.021864,0.006944,0.016382,-0.009594,-0.013173,0.009765,-0.004188,-0.021371,0.008313,0.00779,-0.026869,0.022832,0.010908,0.010921,-0.026293,0.002664,-0.000782,-0.010248,-0.034266,0.014327,-0.02718,-0.013217,-0.012445,0.000862,0.003525,-0.004302,-0.015712,0.023154,0.008613,0.016049,-0.015586,0.00309,0.015143,-0.032562,0.033388,0.04625,-0.037423,0.029807,0.024789,-0.000895,0.025497,0.000434,-0.015386,0.001903,0.012045,0.015463,0.01106,-0.000942],[-0.002708,0.007935,-0.015325,-0.029152,0.00431,-0.021301,0.014626,-0.020326,-0.00489,-0.00512,0.006004,-0.0103,-0.028693,0.017539,-0.031723,0.027045,-0.002918,-0.004731,-0.009858,-0.016013,0.025738,0.023163,-0.008557,0.002373,-0.029684,0.017892,0.031917,0.024439,-0.016169,-0.027703,-0.04144,0.01429,-0.027715,0.001648,-0.006919,-0.002183,-0.004873,0.001756,0.013794,-0.047927,-0.0117,0.018313,0.011111,0.025815,0.033599,0.040728,0.005055,0.03763,-0.040321,-0.004873,-0.003308,-0.008272,-0.013971,-0.027412,0.034213,-0.032823,-0.013063,0.007234,0.004361,0.018217,-0.033704,0.022359,0.017269,-0.007395,0.027978,-0.027211,-0.034836,0.021585,-0.01574,-0.031394,-0.012305,-0.022368,0.012132,-0.014533,-0.033755,-0.024083,0.030871,-0.015703,-0.002963,-0.013119,-0.002375,-0.025175,0.015737,-0.031181,-0.003613,-0.002132,-0.022204,-0.001575,0.022171,0.031601,0.031227,-0.038129,-0.031993,-0.001438,0.001756,-0.027693,-0.032808,0.000173,-0.055006,-0.018279,0.010978,-0.009564,-0.036353,0.012614,0.007486,-0.043599,-0.015877,-0.000917,0.014721,0.031752,-0.002543,-0.03738],[-0.010179,-0.011618,0.006504,0.003636,0.018741,-0.015162,-0.01764,0.014918,0.002348,0.019733,0.009007,-0.025092,0.014284,-0.012038,0.001648,0.003207,0.006238,-0.044385,-0.014263,0.007687,-0.015043,-0.011901,-0.015791,-0.017535,-0.016856,-0.011047,0.007536,-0.000969,-0.007358,0.013921,0.002413,0.037544,-0.034031,0.018897,0.01781,-0.003746,0.014239,-0.008882,-0.020233,0.011902,0.030061,0.007412,-0.018491,0.018678,0.021104,-0.029825,-0.001232,0.01699,0.012148,0.008032,0.010346,0.018688,0.017067,-0.005333,0.002156,0.019711,-0.001434,0.001998,-0.000737,-0.025436,0.013723,-0.010511,0.026629,0.004828,-0.014101,0.055035,-0.004719,-0.002161,-0.000335,-0.003242,-0.011342,0.013357,0.01418,0.027907,-0.018614,0.003748,-0.024663,-0.010766,-0.037766,-0.029931,0.018143,0.004058,-0.025203,-0.007984,0.006926,-0.001877,-0.01653,-0.011647,-0.002232,-0.004142,-0.042908,-0.002089,0.008394,0.012193,-0.033168,-0.011208,0.012811,-0.01404,0.008323,0.006356,0.01528,0.011947,0.009085,-0.023696,0.027222,0.002501,0.00261,-0.002666,-0.049013,0.01097,0.012463,0.015671],[0.006534,-0.006912,0.015441,-0.003429,-0.003257,-0.001605,0.014589,0.022816,-0.021736,0.010512,0.009868,-0.017614,0.011322,0.00236,-0.012966,-0.020798,0.015634,0.015262,0.005517,0.001442,-0.013412,0.012106,-0.013651,-0.012187,0.00458,0.001888,0.001646,0.002828,-0.008407,0.004554,0.009795,0.023184,-0.016304,-0.009053,-0.019723,-0.019688,0.012631,0.001127,0.001052,-0.022981,-0.012036,0.010211,-0.021519,-0.015437,-0.000475,0.009154,-0.008135,0.02423,0.018183,-0.006608,0.015754,0.006893,0.00113,0.010852,0.018248,0.000689,-0.004023,-0.008716,0.004629,0.012524,-0.005785,-0.012343,-0.005494,-0.033472,0.013793,0.02093,-0.014104,0.006441,-0.00743,0.026078,-0.001526,0.026951,0.008733,-0.002374,-0.025026,-0.00878,-0.00886,-0.006075,0.012157,-0.014483,0.002557,0.006775,0.009718,0.003107,0.004657,0.003275,-0.015336,0.005339,-0.000969,0.007502,0.007176,-0.001628,0.009623,0.002569,-0.011263,-0.026884,0.004827,-0.013229,0.019222,0.006069,-0.00707,0.00988,0.003294,0.001844,-0.00563,-0.021992,-0.002336,-0.04716,0.045107,-0.022987,0.02488,0.006862],[0.016853,0.005379,-0.008526,0.023594,0.01394,-0.01541,0.013845,-0.006228,-0.038407,0.005696,-0.023624,-0.02117,-0.000866,0.045665,-0.019399,-0.003968,-0.003818,-0.016063,0.020953,0.003846,-0.002574,0.029332,-0.008155,-0.008156,-0.008392,0.002874,-0.005292,-0.043148,-0.001555,0.001436,0.002594,0.004624,0.005592,-0.001833,0.03025,-0.022713,0.00474,0.011385,0.018869,0.004935,-0.006476,0.028044,-0.028297,0.008418,0.026207,0.011859,0.023199,0.02391,-0.023693,-0.021386,0.039224,0.009012,0.021506,0.007347,-0.005466,-0.039448,0.041744,0.007836,-0.010006,-0.009193,-0.025772,-0.029243,0.011668,-0.010232,-0.003458,0.000192,0.027042,0.004568,0.015959,-0.020567,-0.003062,0.016559,-0.006047,-0.012913,-0.018699,-0.017358,0.021975,-0.001843,0.003195,0.010835,0.008902,0.015253,0.017812,-0.010897,-0.012468,-0.014775,-0.03245,-0.007305,0.029765,0.038656,-0.018534,-0.010285,-0.010932,-0.004956,0.000361,-0.018462,0.010287,0.061091,-0.042761,-0.013471,0.001556,0.005025,-0.012016,-0.029197,-0.004714,-0.017068,0.007974,-0.028283,-0.01012,0.038505,0.008354,-0.008457],[-0.002237,-0.001851,-0.018913,-0.028733,0.009556,-0.021131,0.009626,-0.007787,0.028296,-0.008342,0.003905,-0.019433,0.013799,0.007814,0.013795,0.009288,0.00023,-0.004783,-0.004697,-0.003418,-0.023594,-0.008827,-0.01189,0.006408,-0.002897,0.022777,0.043876,0.002009,-0.006011,-0.011099,0.004455,0.02601,-0.000676,0.000872,-0.001565,-0.014677,-0.036815,0.016935,-0.006925,0.005594,-0.012408,0.012469,-0.003218,-0.030582,0.009967,0.025082,0.010723,0.009569,-0.000404,0.003495,0.05063,0.009798,0.018024,-0.005984,0.014614,-0.013193,0.001445,0.012938,0.003544,-0.011396,-0.02013,-0.006468,-0.022034,-0.009065,0.009223,-0.01428,0.008922,0.021174,0.001659,-0.005832,0.005044,0.009277,0.008847,0.001589,0.008683,-0.000122,0.0077,0.014735,0.018907,-0.003461,0.00864,-0.015533,-0.013864,-0.021802,0.009073,-0.01788,-0.011002,-0.005675,0.043895,0.043254,0.006256,0.010176,-0.010884,-0.01419,0.000933,-0.021026,0.000121,-0.003732,-0.020134,0.020515,0.034689,-0.017998,-0.040127,-0.035112,-0.00593,-0.011852,0.003434,-0.007702,0.026939,0.0072,0.0055,-0.039729],[-0.009313,-0.042133,0.028609,0.018986,0.005336,-0.000315,-0.035168,0.014748,-0.002405,0.030597,0.037643,0.032637,0.008792,-0.026514,0.006173,-0.025286,0.017806,-0.01452,0.022804,0.024445,-0.032321,-0.027878,-0.023506,-0.011055,0.043727,-0.021514,-0.042032,-0.005311,0.01416,0.021807,0.008632,0.012346,0.03584,-9.6e-05,0.06934,0.028152,0.036427,-0.021838,-0.014746,0.031172,0.025436,-0.023498,-0.04668,-0.016667,-0.040747,-0.0442,-0.016744,-0.055568,0.021869,-0.004461,0.009465,0.030265,-0.014189,0.039134,-0.030312,0.020986,0.019364,-0.067577,0.018192,-0.006655,0.031529,-0.023389,0.02251,0.003513,0.016062,0.014252,0.024753,-0.024021,-0.035157,0.038592,-0.000384,0.027003,-0.032826,0.020499,0.012441,0.009858,-0.030231,-0.034392,-0.011699,-0.014696,0.005005,0.018558,-0.044583,0.047338,0.009202,0.006215,0.030561,-0.00139,-0.030669,-0.006782,-0.021952,0.027928,0.055137,0.002289,-0.002049,0.012734,0.028909,0.033911,0.068034,0.029235,0.01557,0.011461,0.037782,0.050359,0.016427,0.052655,0.035737,0.046144,0.034944,-0.033881,-0.015613,0.018749],[0.00219,0.020835,-0.003607,-0.005068,0.009746,-0.017462,0.00179,-0.0151,-0.025724,-0.005461,0.002606,0.03236,0.01051,-0.026095,0.03357,0.009881,0.009779,0.023586,0.012139,-0.013024,0.027887,-0.020587,0.002985,-0.002636,-0.001005,0.01088,-0.01032,0.024564,0.00936,-0.005149,-0.018513,-0.007345,-0.00451,0.004346,0.014568,0.016451,-0.016647,-0.014382,0.040326,0.018871,-0.00509,-0.020901,-0.002468,-0.017019,-0.012696,-0.015508,-0.005494,9e-05,-0.01578,-0.015848,-0.027944,0.013422,0.013654,0.020822,0.009699,0.006836,0.035306,0.021399,0.015004,0.022944,-0.008613,0.002267,-0.0139,0.027334,-0.00634,-0.013472,-0.007914,-0.011765,0.018425,0.007507,0.017089,-0.00588,-0.002772,-0.014053,-0.001292,0.009973,-0.024658,0.006621,0.003807,0.031834,-0.011124,-0.001757,0.002175,0.011795,0.030401,0.016406,0.004966,-6e-06,-0.005097,0.004495,0.009431,0.01611,-0.005176,-0.012216,0.004257,0.018325,-0.013885,-0.012044,0.021135,0.018297,0.008225,-0.016693,-0.038278,0.006105,0.013235,0.010572,-0.014383,0.001451,-0.010067,-0.002779,0.00615,0.02389],[0.005147,0.001629,-0.025431,-0.011453,-0.02909,0.000585,0.001134,-0.003411,0.003866,-0.00976,-0.003986,0.008809,-0.022551,-0.045584,0.024458,0.029764,-0.031357,0.004,0.010112,-0.025125,0.018436,-0.004298,0.01382,-0.006397,0.00825,-0.031822,-0.000428,0.010796,0.005761,-0.023341,-0.013903,-0.012949,0.006396,0.013047,0.006824,-0.01098,0.035629,0.006255,0.000914,-0.00216,0.024074,0.023502,-0.001396,0.014444,0.013894,0.017619,0.008424,-0.015125,0.003498,-0.01451,-0.013431,0.007665,0.029986,-0.006178,-1.9e-05,0.004131,-0.021304,0.004655,0.003739,0.024575,0.00155,0.002623,-0.006748,0.02134,-0.006606,-0.027144,0.005822,0.032322,-0.018639,0.007236,0.015166,-0.012702,0.009522,0.004472,0.00775,0.01282,-0.011003,0.004591,0.008573,0.010885,-0.042757,0.015525,-0.013276,-0.010991,0.025378,0.027993,0.037039,0.021932,-0.007043,0.017686,0.036175,0.017259,0.006908,-0.005324,0.007552,-0.009371,-0.001862,-0.005166,0.018747,-0.005384,-0.01956,-0.001355,-0.00759,0.001432,-0.013755,0.009664,-0.002469,0.026684,-0.019484,0.004716,-0.008645,0.045113],[0.012185,0.026691,-0.000633,0.028298,0.021237,-0.011654,-0.027284,0.006496,-0.003314,0.002568,-0.007792,-0.008006,-8.8e-05,-0.026499,0.023488,0.005836,0.000777,-0.008857,-0.001255,-0.018417,-0.010723,-0.029301,-0.012656,-0.010378,0.01362,-0.000519,-0.007812,0.013536,0.024657,-0.012093,-0.003062,-0.003583,0.001949,-0.038177,0.016097,0.006723,0.006959,0.013401,-0.001015,0.019476,0.004112,0.010406,0.02184,0.004593,0.009386,-0.038797,-0.004828,-0.016661,0.002283,-0.015999,0.010295,0.023239,-0.022186,-0.000287,-0.035892,0.000343,0.03724,-0.013288,0.00682,-0.013572,0.021481,0.027787,0.013459,0.031502,-0.01113,0.026795,0.008858,-0.003943,-0.016112,0.008966,-0.001248,0.015801,-0.027001,0.009239,0.004067,0.040506,0.006957,-0.01986,0.0027,0.015035,0.009893,0.008681,-0.00981,0.016391,-0.002742,-0.005887,0.004488,-0.002681,0.009148,-0.018433,0.010273,-0.000869,0.014438,0.003275,-0.001146,0.002202,0.018385,-0.007369,-0.004092,-0.004393,-0.010073,0.034711,-0.017875,0.008996,0.004407,-0.01589,0.021642,0.004856,-0.0061,0.010807,-0.029265,-0.007286],[-0.013386,0.003134,0.016937,-0.007559,-0.011959,0.000107,-0.005849,0.008597,-0.001795,0.015013,-0.014491,-0.017527,-0.000809,0.017508,0.000754,0.007053,0.007997,0.002364,0.003616,-0.000708,0.006186,-0.01924,-0.037748,-0.006773,-0.010831,-0.00814,0.025961,-0.022608,-0.015405,0.024267,0.022534,0.032266,0.000592,0.029681,0.010886,-0.011055,0.050459,0.021981,0.01606,0.010189,-0.00702,-0.017786,-0.001256,-0.002835,0.002218,0.031854,-0.021884,-0.000773,-0.003065,0.005847,-0.024007,0.002199,0.021931,-0.022673,0.005287,0.022623,-0.007069,-0.003586,-0.024636,0.014196,0.022824,-0.027741,-0.005132,-0.017188,-0.024262,0.001274,-0.009961,0.010431,-0.004324,0.001795,-0.023545,0.003725,-0.021552,0.016462,0.00598,-0.014378,0.019095,-0.003342,-0.014888,-0.030872,0.011314,0.012935,0.019499,-0.000487,-0.02752,-0.027757,-0.014742,-0.013708,0.01683,0.006478,0.012898,0.001293,0.007548,0.02639,0.008188,0.009079,0.007127,-0.017007,0.019395,-0.012371,-0.033639,-0.003299,-0.005861,-0.016308,0.025168,-0.029658,-0.017865,0.004303,0.021658,-0.011798,0.02643,-0.014149],[0.018369,-0.066627,0.046309,0.026602,0.042863,0.060848,-0.06319,0.040915,0.047203,0.037219,0.026142,0.00271,0.027437,-0.023818,0.020368,-0.065303,0.031359,-0.005689,-0.031536,0.060658,-0.024592,-0.00568,-0.013518,-0.040853,0.05214,-0.052632,-0.064417,-0.01525,0.031873,0.067128,0.049055,-0.031953,0.046691,0.008908,-0.007469,0.059268,0.022575,-0.007607,-0.06836,0.027527,0.041079,-0.018076,-0.023168,-0.008528,-0.002788,-0.046768,-0.051088,-0.062033,0.051251,0.058078,-0.045892,0.030989,-0.026024,0.059123,-0.06137,0.052975,-0.049587,-0.046978,0.042056,-0.079249,0.003511,-0.006038,0.04818,-0.02297,0.010431,0.050808,0.031644,-0.026067,-0.013466,0.079436,-0.018148,0.02489,-0.064623,0.069666,0.019185,0.0148,-0.016188,-0.040335,-0.014234,-0.051243,0.013547,0.033487,-0.060042,0.039239,-0.00763,-0.020851,0.01794,-0.076199,-0.056421,-0.054581,-0.079313,0.020665,0.060472,0.00657,-0.03583,0.030831,0.060863,-0.005268,0.029636,0.053649,0.043306,0.047161,0.039938,0.029185,0.057524,0.047537,0.013334,0.056079,-0.012477,-0.046395,0.025757,0.043216],[-0.007161,-0.013046,-0.008761,-0.01979,-0.004295,-0.009534,-0.003996,-0.002933,0.01007,-0.013735,0.027619,0.012177,-0.00878,-0.004507,0.000931,-0.018322,0.00921,-0.003215,0.007429,-0.009418,0.011637,0.006196,-0.03993,-0.005218,0.002634,-0.002421,0.007549,0.006676,-0.034892,-0.040656,0.00799,-0.016413,0.006764,-0.019612,0.000753,-0.019607,0.018963,0.012092,-0.004061,-0.020422,0.00797,0.014432,-0.016814,-0.023358,0.010456,0.007324,-0.014628,0.01281,0.006815,0.002775,0.009731,-0.002893,-0.000695,0.022712,0.003509,0.022655,-0.03924,0.001725,-0.006541,-0.007088,0.002743,-0.012831,0.012831,-0.000526,0.000746,-0.017544,0.008812,0.008644,0.002665,0.001492,0.008648,0.007668,0.016232,-0.005066,0.031367,-0.014613,0.012887,0.005977,-0.014928,0.010591,0.008163,-0.003038,0.011409,0.019239,0.000483,0.00526,0.019106,-0.004083,0.023953,-0.001479,0.033011,-0.016029,0.001805,-0.024421,0.006057,-0.008316,0.001467,0.001779,0.031065,-0.007258,0.005963,0.038432,-0.027288,0.026359,0.005909,-0.000754,0.041929,0.041895,-0.028348,-0.00226,-0.008027,-0.01091],[0.032313,0.015183,-0.009549,0.008606,0.020984,0.042978,0.011351,0.011082,0.022846,0.005578,0.00078,-0.015828,0.005933,0.002646,-0.006935,0.003267,-0.011176,0.015387,-0.026883,0.014708,-0.005864,0.012158,-0.004765,0.003137,0.021647,0.022553,0.023285,0.03258,-0.014594,0.017116,0.024504,-0.001155,-0.001437,-0.013064,-0.024888,-0.029767,0.008013,-0.004212,0.008344,-0.035488,-0.009627,0.042241,0.011411,0.010083,0.021636,-0.008718,-0.013429,-0.021576,-0.02449,-0.003841,-0.01731,-0.002916,0.029423,-0.017991,0.031083,-0.000313,0.006425,0.017459,0.00946,0.005609,-7.9e-05,-0.029478,0.001389,0.006382,0.010104,0.011169,-0.004489,0.00079,-0.010593,-0.007135,-0.024041,-0.029463,0.039362,-0.001157,-0.002448,-0.006936,-0.004631,-0.003109,0.010141,-0.009421,-0.001541,0.016501,0.025509,-0.009757,0.019397,0.009656,-0.029679,-0.011366,0.019964,-0.00725,0.023507,-0.018661,-0.004265,0.009473,0.016229,0.011489,-0.020835,-0.019179,-0.005579,-0.022846,0.012172,0.019478,-0.006383,-0.025052,-0.048318,-0.032938,0.002094,0.002872,-0.019742,0.020933,-0.001293,0.021822],[0.00657,0.03655,-0.011239,-0.020311,0.011115,-0.011382,-0.015848,0.000273,-0.001725,-0.026855,-0.029883,0.021342,0.005398,-0.020617,-0.005563,-0.007921,0.009016,-0.02734,0.041866,-0.016129,0.017411,0.00744,0.029921,0.01184,-0.015251,0.018024,0.009491,0.002066,0.003949,-0.05345,-0.025182,-0.029441,-4.5e-05,0.011744,-0.011518,-0.015791,0.002823,0.018557,-0.004801,-0.007948,-0.019739,-0.002077,0.030207,0.024952,-0.02111,0.004161,0.031333,0.012914,-0.02467,-0.02041,-0.005749,-0.01558,0.006115,-0.004951,-0.016795,-0.000189,0.010507,0.012509,-0.001363,0.014566,0.016356,0.013491,-0.016299,0.038596,-0.025607,-0.004027,-0.035869,0.003113,0.01064,-0.025357,0.026385,-0.016992,0.004549,-0.021955,0.015166,0.002066,-0.016401,0.009358,0.008571,0.033964,-0.020359,0.012678,0.02812,-0.023245,0.035377,0.010783,0.008066,0.011261,-0.005932,0.033715,0.013671,-0.014721,-0.007401,-0.005347,0.022192,-0.004383,-0.012306,-0.057305,-0.046262,-0.004553,-0.032406,0.005409,-0.011294,0.001374,-0.033503,-0.038131,0.009491,-0.049472,0.007464,0.035076,-0.016662,0.004975],[0.014437,0.036139,-0.005804,-0.019157,0.001345,-0.010549,0.030701,-0.002025,0.01936,-0.018773,-0.034674,-0.005142,0.019689,-0.007444,-0.016177,0.00032,0.001753,0.028333,0.025384,-0.002232,0.019633,0.019917,0.007548,0.016915,-0.014248,0.000549,0.003213,0.003277,-0.023611,-0.035876,-0.023858,-0.027218,-0.00066,-0.027282,-0.021868,-0.030161,-0.012486,0.006925,0.03594,-0.00162,-0.011617,-0.007589,0.018539,0.02279,0.022564,0.003959,0.041769,0.01855,0.009916,-0.010702,0.000334,0.012027,-0.010361,-0.02424,0.022739,0.003806,0.009024,-0.002233,-0.006582,0.030663,-0.013118,-0.001829,0.010973,-0.010296,-0.012573,-0.009676,-0.018425,0.013734,0.019398,-0.022705,0.010295,-0.009278,0.027025,-0.028973,0.000237,0.020982,-0.009855,0.015336,0.011881,0.014042,-0.020397,-0.019447,-0.000588,-0.028837,0.008882,0.019572,0.002741,0.021789,0.007257,0.019375,0.038585,0.018657,-0.014017,-0.00194,0.022506,-0.014866,0.008863,-0.050023,-0.002153,-0.031155,-0.05499,0.001917,0.006411,-0.031928,-0.02067,-0.005368,0.007875,-0.029188,-0.020819,0.030664,-0.02199,-0.009332],[-0.005365,0.000863,0.036992,-0.024943,0.001966,0.02343,-0.006169,0.015885,0.013685,0.009136,0.015125,0.00673,0.001146,0.01325,0.015374,-0.020385,0.002931,0.012179,-0.002506,0.012431,-0.018612,0.005113,-0.017316,0.007065,-0.013717,-0.006389,-0.016805,0.010324,-0.014949,0.002693,-0.010106,0.012481,0.014486,-0.01115,-0.000708,0.024546,0.006644,0.008608,0.005053,0.028988,0.017561,-0.016819,-0.019792,-0.032743,-0.00842,-0.023134,-0.011956,-0.023286,0.058854,0.008573,-0.012095,0.014738,-0.005873,0.000401,0.008133,0.041994,0.004564,-0.014102,-0.021082,-0.015887,0.00542,-0.014615,0.008438,-0.016993,0.008842,-0.004696,0.015563,-0.006569,0.000806,0.023378,0.002769,0.01118,-0.010195,0.022786,-0.002103,-0.000956,-0.002987,0.001396,-0.014846,0.010052,0.01969,0.000625,0.009137,0.006544,-0.001853,-0.002403,-0.020833,-0.000893,-0.010836,0.001597,0.002654,0.019756,0.032006,-0.000124,-0.005456,0.000663,0.028577,0.016112,0.00176,0.003969,-0.009366,0.002912,0.012383,-0.016144,0.036445,0.005395,-0.005378,0.004212,-0.01789,-0.010859,-0.004252,-0.004843],[-0.0017,0.027793,0.005313,0.00198,0.023058,-0.031931,0.007765,0.004783,0.001534,0.005648,-8.8e-05,-0.006576,0.01556,0.025084,0.025394,-0.004455,-0.007783,-0.019857,-0.012024,0.004058,-0.016374,-0.01465,0.003721,0.002279,-0.009799,0.015316,-0.012113,0.006283,-0.006613,-0.006782,-0.004508,-0.020313,-0.01982,-0.032886,0.001267,-0.001637,0.01143,-0.004015,-0.003005,-0.009796,0.012464,0.017971,0.016569,-0.008947,0.02104,-0.021956,0.010071,-0.004025,-0.023819,0.002356,-0.014788,-0.003073,-0.023836,-0.011364,-0.004549,0.010489,-0.02772,-0.014276,-0.002695,-0.009632,-0.03553,0.012435,-0.009012,-0.009356,-0.014808,-0.012402,0.000452,0.007451,0.003919,-0.000146,0.012519,-0.000104,0.005208,-0.001551,0.003626,0.002483,0.015407,-0.019268,0.017117,-0.019806,-0.003003,-0.005485,0.009524,0.011702,0.007462,-0.008922,-0.016295,-0.00835,0.012248,0.006407,-0.006647,-0.005039,0.008541,-0.012163,-0.008845,-0.00168,-0.004206,0.044599,-0.019665,0.014994,0.014291,0.024661,-0.013458,0.010769,-0.001082,0.004025,-0.001376,-0.007404,-0.011669,0.001829,0.006741,-0.022342],[0.00464,0.017704,-0.009255,0.014201,-0.011252,-0.003607,-0.007627,-0.015762,0.01373,-0.003917,-0.010962,0.011203,-0.014586,-0.005416,-0.004434,0.001273,-0.033794,0.009159,-0.012168,-0.002058,-0.002455,0.010181,-0.009213,0.00462,-0.009759,0.017063,-0.007434,-0.022454,-0.036774,-0.02067,-0.013096,-0.023217,-0.000371,-0.024201,-0.012532,-0.025451,-0.015223,-0.004463,0.004045,0.019996,-0.001489,-0.00257,0.017295,0.039417,0.018505,-0.004417,-0.011499,0.032268,-0.028014,-0.001944,-0.000774,0.012473,-0.009501,-0.001513,0.032579,-0.004371,0.033973,0.018348,0.009221,0.003732,-0.012998,0.015703,-0.018448,-0.021446,-0.000549,0.002198,-0.010436,0.002507,0.00686,0.000643,0.022251,-0.004324,0.030598,-0.000635,0.000125,-0.003589,0.011094,0.002014,0.00979,-0.029359,-0.007247,-0.011546,-0.010288,-0.004782,0.015513,0.007802,-0.007193,0.010479,0.023387,-0.001115,0.032841,-0.00255,0.007991,0.003972,0.006787,-0.023195,-0.014148,-0.036479,-0.05958,-0.001941,-0.01781,-0.025449,-0.014274,0.006475,0.015905,-0.008904,0.024192,0.013742,-0.023517,0.039091,-0.006328,-0.004707],[-0.014297,0.013496,-0.017094,0.010036,-0.023655,-0.017624,-0.000414,0.022344,0.003435,0.010883,-0.033735,0.010868,0.017048,-0.024843,-0.015887,-0.00345,-0.003337,0.016957,0.000649,0.01173,-0.021933,-0.015976,-0.008348,0.003745,0.012848,-0.014377,0.008213,-0.019,0.044746,-0.006394,0.008139,0.001755,0.019053,-0.022611,0.025996,0.006265,-0.003966,0.022013,-0.002382,0.029463,0.024448,0.005095,0.015089,-0.014114,-0.018719,-0.004781,0.001371,-0.000864,-0.007731,-0.025517,0.001225,0.029499,-0.00856,0.011333,-0.034312,-0.012571,-0.000675,0.001046,-0.015924,-0.019393,-0.003095,-0.003831,-0.009317,5.6e-05,-0.00812,-0.000198,0.035917,-0.009575,-0.000342,0.006359,0.022438,0.012135,-0.006001,-0.011714,-0.002818,-0.009276,-0.005627,0.006458,0.020434,0.029446,-0.003366,-0.003516,-0.021457,0.008065,-0.009671,0.021506,0.021638,0.0023,-0.022921,-0.010157,-0.006494,0.00822,0.005849,-0.026894,-0.005705,0.011032,0.020105,-0.017586,0.031911,-0.0071,0.006027,0.010398,0.012038,0.002218,0.036302,0.024328,-0.018258,-0.005977,0.001224,0.005783,-0.024005,0.013511],[-0.006202,0.002423,0.011501,0.027788,-0.011323,0.005293,-0.005147,-0.006898,-0.013675,0.012338,0.015872,0.009354,-0.029968,-0.009985,-0.007187,0.000779,-0.021861,-0.037378,-0.018659,-0.002272,0.000655,0.005646,-0.003543,-0.036116,0.01271,-0.024927,0.003341,0.006804,-0.005098,0.002739,0.002613,0.018356,0.002826,-0.002028,0.008198,0.006166,0.001083,0.005509,0.004878,-0.01481,-0.004706,0.010501,-0.030574,0.014335,0.010034,-0.020552,0.005153,0.002606,0.00965,-0.00927,0.011153,-0.005878,-0.005282,-0.024858,-0.000217,0.004223,0.010302,-0.020311,-0.015301,-0.03548,-0.007756,0.008498,0.006035,-0.008395,0.013415,-0.001677,0.004639,-0.019938,-0.009849,0.023434,0.015968,0.007108,0.005352,0.014985,0.009835,0.006586,-0.011464,-0.011528,-0.008648,-0.012753,-0.014172,0.007151,0.001418,-0.03349,0.033206,0.001202,0.003112,0.008231,0.018774,0.003388,0.001331,0.014193,-0.01341,-0.009161,-0.003241,-0.018899,-0.004885,0.053319,-0.020919,-0.013579,0.01386,-0.010425,-0.00241,-0.012058,0.036792,0.005109,0.003885,-0.010087,-0.018511,-0.000302,-0.012158,0.017797],[-0.006611,-0.00548,0.008108,0.000122,0.003971,-0.008753,-0.000556,-0.017519,0.008076,0.006168,-0.00016,0.013859,0.016235,-0.002351,0.020124,-0.025454,0.03247,-0.017397,0.018119,-0.000984,0.003595,0.000777,-0.020623,0.011464,0.009884,-0.019488,-0.005188,-0.01702,-0.000294,-0.013464,0.012931,0.011561,0.026666,0.005532,0.002103,0.014792,0.001816,-0.010757,0.004893,0.01415,-0.029373,-0.004915,-0.009079,0.015238,0.006158,0.005063,0.013777,-0.004892,0.014494,-0.003717,-0.002126,0.009328,0.049858,0.015484,0.003542,0.019533,-0.013397,-0.00659,0.004524,-0.035442,0.016549,-0.001692,0.000805,-0.012084,0.009402,-0.00784,0.0025,0.001459,-0.001899,0.005225,0.003156,-0.001692,-0.017724,-0.004869,0.019552,0.008158,-0.018051,-0.015168,0.007208,0.01351,-0.002457,0.015774,-0.011797,0.004864,-0.009727,0.011596,0.014133,0.030317,-0.014891,-0.004026,0.015088,-0.010404,-0.002066,0.015153,-0.006355,0.012094,0.020264,-0.004277,-0.02481,-0.034437,0.020908,0.032218,-0.031407,0.00049,0.010065,0.001583,0.007026,0.029832,-0.009724,-0.000249,-5.3e-05,0.012762],[0.008456,-0.021122,-0.007642,0.004798,0.019153,0.010324,-0.021545,0.010381,-0.012155,0.021443,0.020828,-0.018328,-0.024002,0.009092,0.002824,-0.024513,-0.044066,0.006191,-0.023694,0.00183,-0.033462,-0.01347,-0.018723,-0.018129,0.013784,-0.012974,0.003806,-0.027738,0.003828,0.017985,0.010092,0.022579,-0.032065,-0.021141,0.010141,-0.020045,-0.019508,-0.004759,-0.025427,-0.009326,0.005482,-0.03095,0.005027,-0.021893,0.011351,0.002667,-0.009885,-0.011943,-0.013371,0.022327,0.004262,0.028079,-0.004349,0.011881,-0.016367,0.004603,0.029481,0.012949,0.01792,-0.027684,-0.021907,-0.015211,-0.000923,-0.041714,0.004537,0.019967,0.004907,0.007943,-0.015549,0.025514,0.001877,0.004028,-0.000248,0.012833,-0.001755,-0.028501,0.013511,-0.021133,-0.027523,-0.030001,-0.003692,0.009508,-0.021086,-0.002702,-0.006882,-0.006433,7.5e-05,-0.005215,-0.009398,0.004937,-0.02896,0.010239,0.002572,-0.011176,-0.038674,0.007254,-0.031158,-0.025243,-0.024378,0.008836,-0.006203,-0.017382,0.013499,-0.019403,-0.014049,-0.022115,0.022888,-0.005363,0.015766,-0.016168,-0.008485,-0.005087],[-0.040885,0.002688,0.009987,0.001899,0.017554,0.019465,-0.004957,0.014137,-0.003652,0.007624,0.009892,-0.004412,0.003157,0.024087,0.022681,-0.016022,0.025424,0.000267,0.005699,0.040125,-0.003274,-0.019874,0.000679,-0.016271,0.00942,-0.013474,-0.012698,-0.014129,-0.009975,0.003525,0.021146,0.008607,0.010071,0.03106,0.043477,0.003301,0.016149,0.026491,-0.011849,0.001843,0.02279,0.020562,-0.029304,-0.031107,-0.008197,-0.013976,-0.040386,-0.007333,-0.004603,0.015191,-0.003818,0.009747,-0.010721,0.006824,-0.018962,0.012499,-0.014833,-0.007891,-0.011565,-0.002635,-0.003714,-0.02321,-0.013058,-0.004189,-0.016779,0.009679,0.003121,0.002302,-0.015886,-0.000421,-0.02135,0.021431,-0.016274,0.011774,0.000887,-0.012134,0.006716,-0.006787,-0.018372,-0.000565,0.00037,0.010535,-0.027971,0.023725,-0.009766,-0.012281,-0.002504,0.005375,-0.003679,-0.011618,-0.008689,0.002286,0.007873,-0.009391,-0.007721,0.019035,0.004796,-0.002359,0.02201,0.032585,0.012118,-0.001846,-0.001399,-0.001742,0.005878,0.012899,0.025409,-0.024539,0.02146,-0.019911,0.024537,0.006502],[-0.014837,0.021814,-0.01379,-0.005074,0.005999,-0.030322,0.004768,-0.030543,0.024065,-0.009121,0.012226,0.01691,-0.00909,-0.019446,0.030587,-0.001572,0.006003,-0.00679,-0.006184,0.000383,0.001839,-0.0106,0.030583,0.013065,-0.009655,0.005392,0.000393,-0.041086,0.012167,-0.017796,0.005669,0.008106,-0.001138,-0.023516,-0.018078,-0.010388,-0.013844,0.023133,-0.002498,0.03844,0.003241,0.009285,0.021802,0.010068,-0.006691,-0.031975,0.022633,-0.002146,-0.030503,0.004026,0.013087,0.007927,-0.020006,-0.008572,-0.00698,0.016493,0.014453,0.005111,0.005088,-0.000373,0.002323,-0.027287,-0.009157,-0.008506,0.010809,-0.009969,0.00165,-0.006423,0.040828,-0.00985,0.010104,-0.004574,-0.011612,-0.007055,0.010233,0.014736,-0.002214,-0.006405,0.0131,0.025071,-0.015586,-0.015761,0.007193,-0.003267,0.016907,-0.000621,0.021768,0.014864,0.001202,0.015992,-0.010692,0.004997,-0.000908,-0.004639,-0.001374,-0.006571,0.035203,0.038367,0.030009,0.022633,-0.001288,-0.012366,-0.01371,-0.022364,0.004507,-0.014603,-0.03615,0.000352,0.003222,-0.019421,-0.027907,0.001727],[-0.029482,0.009496,-0.015718,-0.044072,-0.025167,0.006034,0.011673,0.012539,-0.040057,-0.027273,-0.007227,-0.008914,-0.002682,0.029801,0.000409,0.037583,-0.003697,0.003288,0.011304,-0.015662,0.003409,0.025727,-0.007822,0.00918,-0.026175,0.010487,0.033664,0.001472,-0.00135,-0.014632,-0.015432,0.001446,0.006543,-0.019203,0.002739,0.004076,-0.020862,0.023482,-0.003034,-0.038585,-0.015298,0.008101,-0.0069,-0.003626,0.020078,0.024381,0.036319,0.016765,-0.003464,-0.003172,0.023626,0.004835,-0.007098,-0.02544,0.013009,-0.027112,-0.013756,0.026183,-0.035278,0.009457,0.037496,-0.034852,-0.028338,-0.005557,-0.005153,0.023236,-0.00705,0.019787,0.010764,-0.009494,-0.024516,-0.031339,0.007765,-0.006871,-0.033274,-0.014751,0.03041,0.013191,-0.007401,-0.020142,-0.019388,-0.02722,0.015993,-0.021012,0.007011,-0.010525,-0.013011,0.004629,0.02564,0.007694,0.029844,0.002122,-0.013966,-0.006099,0.033354,0.000106,-0.004977,0.017082,-0.023202,0.015611,0.006376,-0.014932,-0.009526,-0.027387,-0.018626,-0.003364,-0.016048,-0.018312,0.050439,0.047081,-0.001215,-0.042632],[-0.001195,0.010209,0.02012,0.001489,0.014789,-0.000186,-0.017987,0.006489,0.018825,0.009373,0.019738,-0.033176,-0.013186,-0.00842,0.007654,-0.032068,0.022441,-0.009823,-7.6e-05,0.029234,-0.007634,-0.014865,-0.013792,-0.011114,-0.00869,-0.010833,-0.022181,-0.02148,-0.028891,-0.019863,0.015777,-0.028821,0.021549,0.02815,0.025295,0.027575,0.011268,-0.018348,-0.008879,-0.008546,0.03303,0.028659,0.009382,-0.025938,-0.00237,-0.021226,0.003992,-0.013681,0.011549,0.027934,-0.0225,0.019288,-0.022626,0.028129,0.015499,-0.000497,0.013443,-0.019041,0.013232,-0.008933,0.015251,0.0022,0.025032,-0.033531,-0.001826,0.02312,0.029997,0.006018,-0.02727,0.016681,-0.018411,-0.002147,-0.016602,-0.006116,0.01232,-0.017414,0.012739,-0.005767,-0.036237,0.004652,0.023358,-0.006269,0.002829,0.024957,-0.004536,-0.019499,0.003164,-0.021633,-0.001878,-0.032459,-0.014717,-0.031099,0.004983,0.00069,-0.009914,0.019017,-0.014032,0.021569,-0.00214,0.020994,0.020216,-0.035975,0.00091,0.007328,-0.032637,-0.017029,0.024276,0.017795,0.032919,0.005561,0.004191,-0.017432],[0.011955,0.006037,0.003436,-0.00878,-0.000351,-0.012243,0.021301,0.00724,0.008135,0.011692,-0.020919,0.009018,0.009768,0.021928,-0.005185,0.008732,0.014813,-0.020831,0.003391,-0.007058,0.002889,-0.002375,-0.001335,-0.007681,0.003472,0.013293,0.005017,0.007991,0.006276,0.001446,-0.019006,-0.008564,-0.023714,-0.00701,-0.000124,-0.000432,-0.017651,0.001125,0.007677,-0.011336,0.018391,-0.011201,0.02228,-0.025091,0.018115,1.1e-05,-0.008769,-0.007986,0.014141,-0.008398,-0.013951,-0.022117,-0.005301,0.024419,0.013856,-0.005602,-0.001018,0.002962,-0.02518,0.007522,-0.012244,0.017622,-0.006034,0.005588,-0.013727,-8.4e-05,0.012857,0.001186,-0.025861,-0.004125,-0.021939,-0.000839,0.019046,0.001839,-0.014706,0.003516,-0.006226,-0.010861,-0.003016,0.027034,0.011086,-0.007749,-0.011124,-0.02431,0.016739,-0.004602,0.004818,0.007985,0.007925,0.002135,0.022624,-0.006393,0.001442,-0.014536,0.006728,-0.011832,-0.013348,0.023602,0.013352,-0.032167,-0.000337,-0.013533,-0.024039,-0.001165,-0.019183,-0.001488,0.04173,0.009487,-0.022596,-0.006614,0.031873,0.024257],[-0.006508,-0.028785,0.012306,0.020501,-0.003577,0.032904,-0.01302,0.011031,-0.003981,-0.007103,0.01324,0.024239,0.018073,0.001122,-0.000775,-0.004676,0.002009,0.02769,-0.00725,-0.007564,-0.005963,-0.006175,-0.008229,0.015288,0.009228,-0.014304,-0.008203,-0.003641,0.014722,0.02851,0.017779,-0.012586,-0.02949,0.018157,0.003154,0.014062,-0.007366,-0.005543,-0.007949,0.005967,0.022162,0.014327,0.00146,-0.000466,-0.009541,0.009067,0.001486,-0.007395,0.016689,2.4e-05,-0.011545,-0.009649,-0.020444,0.031049,-0.003266,0.000122,-0.001727,-0.036293,0.006745,0.030491,0.006585,0.017974,0.011434,0.019166,-0.01605,0.035895,-0.005453,0.000923,-0.008995,0.002898,-0.004283,0.031438,-0.020488,0.010256,-0.001215,0.01195,0.013862,0.006664,0.026936,-0.014972,0.01327,-0.006707,-0.010899,-0.007694,-0.00201,0.013553,-0.000279,-0.005032,-0.023922,-0.023051,0.003773,0.005158,0.019993,-0.001233,-0.015831,0.034548,0.010798,-0.010502,-0.003811,-0.00616,-0.034696,-0.019467,0.038064,0.02227,-0.014655,0.001892,0.028685,-0.016641,0.020084,-0.004128,0.027515,0.006115],[0.006196,0.01178,-0.014705,-0.000605,0.003263,-0.017117,0.00567,-0.023437,0.004371,0.008705,0.018769,-0.013582,-0.005393,0.001363,0.015155,0.000716,0.017267,-0.00469,-0.016553,-0.006487,-0.016577,-0.045322,-0.006458,0.019773,0.001454,0.000415,0.01867,0.027158,0.007878,0.011412,0.003244,0.019334,-0.026916,-0.026264,-0.02867,0.002615,0.005872,0.015754,0.015064,0.014144,0.021088,0.004728,0.028775,0.010116,0.01239,-0.007075,-0.019363,0.017557,-0.008235,0.022312,-0.001553,-0.008678,0.02451,0.021557,-0.000612,-0.006349,0.016516,0.02798,0.026537,-0.004758,-0.027835,0.041631,-0.009569,-0.004397,0.009977,0.022588,-0.008124,0.019606,0.027087,-0.002591,-0.001842,-0.018374,-0.002283,0.005035,-0.019136,0.0331,0.020404,0.008362,-0.011651,-0.012497,-0.015959,-0.028578,-0.027881,-0.002176,0.023216,0.023241,-0.005024,0.02308,0.015584,-0.014321,0.015567,0.002705,-0.00809,-0.023582,-0.006776,0.000936,-0.014598,0.023213,0.020388,0.00847,-0.002571,0.009649,0.020023,-0.004161,-0.046511,-0.00996,-0.008089,0.042261,0.010228,-0.019045,-0.012166,-0.000567],[0.015576,0.034341,-0.021159,-0.020541,-0.01116,-0.002384,0.013107,-0.002124,0.020719,-0.017372,-0.014217,0.032009,0.023472,-0.036283,0.006104,0.034906,-0.004085,0.023982,0.01442,0.002567,0.011378,-0.034655,0.03009,0.034036,0.000155,0.008196,0.009907,0.006819,0.031583,-0.022908,-0.010375,-0.015637,0.00087,-0.002332,-0.021721,0.00864,0.017601,-0.011761,0.029282,0.016583,-0.022913,0.012504,0.026565,0.001881,-0.015819,-0.028465,0.002352,0.016563,-0.018315,-0.046649,-0.013959,-0.002438,0.029306,0.009612,-0.013025,-0.010971,-0.015753,0.029351,-0.02137,0.035998,-0.028373,0.03529,-0.04083,-0.003056,-0.013392,-0.021429,-0.02636,0.00881,0.003869,-0.026662,0.024571,-0.040919,0.00811,-0.020583,-0.009281,0.02105,-0.027747,0.021025,0.01931,0.050772,-0.037712,-0.022367,-0.014847,-0.007564,0.009812,0.037161,0.042554,0.024123,-0.017302,0.013672,0.01542,0.010704,-0.005167,-0.021469,-0.001805,0.017486,0.021036,-0.005673,0.022425,0.002055,-0.00272,-0.040548,-0.004103,-0.017213,0.034752,0.002099,0.005872,0.021532,-0.021193,0.032595,-0.008187,0.008623],[0.003747,-0.004572,0.008997,0.022487,0.008381,0.022498,-0.030715,0.029971,0.018436,-0.005639,-0.00762,0.004513,0.025297,-0.012823,0.021319,-0.029029,-0.017417,0.02115,0.012131,0.001612,0.016779,-0.016354,-0.023071,0.000735,0.036293,-0.008744,-0.021889,-0.004188,0.003187,0.034655,0.02545,-0.000213,0.028014,-0.01819,-0.006464,0.01151,-0.011674,-0.012165,-0.030886,-0.000938,-0.000635,0.007406,-0.016936,-0.003064,0.007121,0.017906,-0.000658,-0.014174,0.016999,0.017603,0.000869,-0.004121,-0.006005,0.012486,-0.02898,0.009382,-0.022127,0.001371,0.008051,-0.01124,-0.008406,-0.020848,0.01312,0.006117,0.018189,0.018427,0.01861,-0.015405,-0.000643,0.029564,0.002923,-0.007505,-0.012603,-0.001645,0.0057,0.020708,-0.012664,0.006045,0.020594,0.000329,-0.0028,-0.007614,-0.010987,0.005484,0.01294,0.015014,-0.020255,-0.032789,0.004356,0.013773,-0.011776,0.013866,0.040962,0.015313,0.012739,-0.000684,0.028323,0.005171,0.018526,0.041905,-0.009951,0.025013,0.000574,-0.0149,-0.028774,0.004953,0.002771,-0.009583,-0.002672,-0.011132,0.013247,-0.008696],[-0.032603,-0.00263,0.005365,0.003065,-0.025503,0.022402,0.002836,-0.002547,0.000934,-0.01629,0.023919,-0.021472,-0.017717,0.047007,0.018719,-0.001285,-0.001597,0.009865,-0.014847,-0.025027,-0.032623,-0.016697,-0.031313,-0.008924,-0.017819,-0.017114,-0.000648,-0.0078,-0.015674,0.021206,-0.024701,0.019389,-0.024768,0.027109,0.022336,0.005198,0.006133,-0.012876,0.005019,0.014067,-0.005298,0.004128,-0.003312,0.00021,0.004983,0.010633,-0.012784,0.009631,-0.003448,0.003206,0.040973,-0.004524,-0.039981,-0.028184,-0.004798,-0.026569,0.022656,-0.024597,-0.023925,-0.039641,0.019637,-0.005613,0.016952,-0.036794,0.009205,-0.003671,0.004957,0.005787,-0.003556,-0.012195,-0.026993,0.014115,-0.001634,-0.00325,-0.017126,-0.026645,0.031146,-0.018686,-0.018546,-0.034259,0.032983,-0.009158,-0.006071,0.021607,-0.010535,-0.022734,-0.011024,-0.042559,0.001294,-0.0064,-0.010467,0.002727,-0.024053,-0.000753,-0.029849,-0.016781,-0.021105,-0.009973,0.040769,-0.003526,0.010209,-0.014211,0.051922,0.037798,0.024745,-0.02476,-0.002286,-0.003158,0.054656,0.00011,0.042234,-0.007577],[-0.009596,-0.002327,0.02212,-0.006394,-0.00295,0.011148,-0.008027,0.010271,-0.020139,0.019922,0.043769,-0.007326,0.00741,0.014355,-0.022829,0.018025,0.007871,-0.008933,0.009283,0.008844,-0.008378,0.004729,-0.009862,-0.014132,0.001665,0.007992,0.010976,0.015893,0.017221,0.015686,0.005179,0.030856,0.009235,-0.022593,-0.019092,-0.006537,-0.010356,-0.001102,-0.015146,-0.019161,-0.007209,0.007221,-0.026382,-0.012352,-0.021039,0.002425,0.017774,-0.007646,-0.001527,0.018909,0.01271,0.000974,-0.016198,-0.004381,0.01052,-0.013943,0.044838,-0.008716,0.024697,-0.002087,0.010221,-0.021679,-0.014526,-0.032177,0.005174,-0.001129,-0.004623,-0.005315,-0.014077,-0.014335,0.005384,-0.011732,0.003157,-0.010485,-0.004552,0.001842,0.004604,0.003735,-0.025383,-0.03892,-0.012106,0.005349,-0.020426,-0.007667,-0.03012,0.000802,-0.005061,-0.018268,-0.023474,-0.011712,0.010047,-0.027592,-8.5e-05,-0.002967,-0.004142,0.005001,-0.014566,0.012214,-0.014815,0.004747,0.004194,0.022185,-0.009729,-0.025678,0.001069,0.013146,0.010097,0.018061,0.014845,-0.010177,0.008176,-0.019975],[0.007002,0.000866,0.015009,-2.3e-05,-0.011871,-0.02237,0.012789,-0.010268,0.007605,-0.011864,0.022558,-0.001286,-0.027662,-0.002219,0.015355,-0.019,0.009023,-0.005918,-0.005516,0.008849,-0.011863,0.013165,-0.013997,-0.00461,0.005572,0.02873,-0.011881,0.019479,0.00405,-0.009964,0.003903,0.027825,0.017004,0.001927,-0.014329,-0.013145,-0.0254,-0.012788,0.004643,-0.015728,-0.001206,0.003173,-0.001808,0.023618,-0.027537,0.018493,-0.023663,-0.009681,0.01291,0.014008,0.013162,-0.015246,-0.002463,0.03037,0.000405,-0.001324,-0.033976,0.004747,-0.011168,0.001739,-0.009382,-0.040004,0.000653,0.011444,0.015061,0.009792,0.009679,-0.006757,-0.018118,0.001427,-0.000874,0.002988,-0.014083,-0.019879,-0.022725,-0.031832,0.003331,0.006392,0.008725,0.023481,-0.005809,0.013141,-0.007463,-0.022612,-0.030513,-0.009572,0.004569,0.018269,-0.016935,-0.002782,0.018849,-0.003467,0.013735,-0.012053,-0.027757,-0.023171,-0.010208,-0.015635,-0.00356,0.017129,0.028165,0.000662,0.007732,0.00668,0.001308,0.001021,-0.007162,0.005378,-0.001333,0.030374,0.038002,0.036579],[0.019294,-0.004886,-0.023925,-0.016096,0.015856,0.014836,-0.010338,0.008424,-0.031698,-0.001402,0.000197,-0.035254,-0.009751,0.013235,-0.006772,-0.020026,0.006728,-0.00867,-0.008638,-0.001651,-0.018755,0.011849,-0.010767,-0.008801,-0.021625,0.021996,0.026648,-0.012257,0.003313,0.003959,-0.017433,0.01143,-0.020849,-0.020938,0.00149,0.01515,-0.004159,-0.010451,0.010595,-0.001943,-0.004485,0.005018,0.021968,-0.02227,0.03198,0.00103,0.026647,-0.005245,-0.013703,0.003901,0.01168,0.016965,-0.015896,-0.02557,0.040616,-0.010844,-0.022186,0.020325,0.045655,-0.000346,-0.011685,0.006739,-0.010379,-0.044439,0.003112,-0.004889,-0.017362,0.00946,0.015844,0.011121,0.002251,-0.001061,-0.012573,-0.006334,0.001387,-0.014129,0.04447,-0.016546,0.00571,-0.008944,-0.002026,-0.020083,0.019169,-0.038007,-0.037014,-0.001493,-0.037993,0.002336,0.007252,0.00513,-0.014145,-0.005648,-0.030865,-0.002141,0.009463,-0.037927,-0.018564,-0.021463,-0.020014,-0.014475,0.022054,0.001804,-0.014183,-0.015492,-0.025396,-0.019567,0.003648,-0.014999,0.018005,0.003954,-0.010978,0.002448],[-0.00798,0.001827,-0.021008,0.007536,0.000312,-0.008975,0.013371,-0.008574,0.02682,-0.014781,0.007894,0.025594,-0.006624,0.002082,-0.014224,0.007912,0.017419,-0.01417,-0.001852,0.005449,0.001728,-0.014006,-0.001548,0.007451,-0.015047,0.002024,-0.010827,-0.008261,-0.000173,-0.021103,0.002249,-0.02016,0.008427,0.003712,-5.4e-05,0.00786,0.023484,0.000907,0.015684,-0.010902,-0.015921,0.009039,0.003711,-0.002213,-0.013735,-0.019586,0.022752,0.009149,-0.017274,-0.013805,-0.02257,-0.020242,0.020282,0.002925,0.009267,-0.001733,-0.037162,0.015215,-0.012868,0.010856,0.016523,0.003471,-0.00496,-0.016376,-0.030261,-0.002497,0.004109,-0.005045,0.005105,-0.017858,0.014303,-0.012426,0.000361,-0.016976,-0.000564,0.000102,0.006072,0.011425,0.00674,0.018215,-0.025905,-0.017608,-0.004737,-0.018477,0.00353,0.025423,-0.023794,0.000802,0.000948,0.004776,-0.009928,-0.018877,-0.004072,-0.00511,0.012777,-0.002653,0.00918,-0.002921,0.016607,-0.012594,-0.012778,-0.016725,-0.026637,-0.014878,-0.001534,-0.01838,0.020243,-0.010648,-0.019178,0.000537,0.013299,-0.004257],[-0.019762,0.01804,0.016208,-0.008124,0.003444,0.01431,0.011019,0.000837,0.010201,-0.003694,-0.008704,-0.016909,-0.00416,0.006996,-0.025168,0.0105,-0.004963,0.018341,0.014456,0.000527,-0.025247,0.008401,-0.006261,0.008286,0.013058,-0.017345,0.004406,-0.004618,-0.03579,0.005663,0.045882,0.010875,-0.0052,0.014617,-0.008616,0.01121,-0.042076,0.003545,0.000426,-0.02678,-0.006615,-0.013242,-0.022026,-0.024293,-0.022978,-0.000349,0.005096,0.020297,0.011111,0.027468,0.028894,-0.000469,-0.008359,-0.026815,0.008543,-0.029441,0.020932,0.006218,-0.033961,0.020051,-0.044928,-0.012738,-0.008944,-0.006686,0.01589,-0.007336,0.006687,0.016626,-0.004089,-0.00639,-0.009266,0.005744,0.007626,-0.021627,-0.018883,-0.014559,0.015777,-0.001283,0.001145,-0.007541,0.012211,0.007237,0.000493,0.010126,-0.001325,-0.029406,-0.013619,-0.009299,0.009359,0.013527,0.001359,0.018373,0.004593,0.001915,0.000208,-0.026643,-0.028994,0.010821,-0.011667,-0.002575,-0.022729,-0.002637,-0.017637,-0.035597,-0.003883,-0.018207,0.011575,-0.038915,-0.003566,-0.004115,0.037465,-0.015911],[0.005312,0.002116,-0.002257,-0.005617,0.004559,0.009135,-0.016652,0.015975,0.025456,0.00912,-0.006302,-0.021729,0.001087,-0.005291,-0.016194,-0.006499,0.002495,0.001027,-0.007456,0.010725,0.0035,0.011676,-0.004145,0.004692,-0.000878,0.016885,-0.004734,0.023221,-0.025043,0.001931,0.003516,0.013608,0.008769,-0.005137,-0.004609,-0.001068,-0.037438,0.016269,0.022412,-0.007232,0.010946,-0.004488,-0.012042,0.013839,0.013592,-0.006935,-0.028178,-0.002031,0.022623,0.012537,0.00421,0.005082,0.005999,-0.018129,-0.000767,0.002937,-0.009754,0.017994,0.027698,0.001616,-0.000956,-0.007303,-0.002311,-0.027734,0.000786,0.016197,-0.019421,-0.004652,-0.002099,-0.00147,0.007497,0.006517,0.0092,0.026235,0.015735,-0.014278,0.017335,0.01389,-0.005467,-0.006639,0.004772,0.001646,-0.018931,-0.006315,-0.022381,-0.028001,-0.033571,0.00542,-0.00088,0.011727,-0.017608,-0.014091,-0.012524,8.7e-05,0.002903,-0.007453,-0.008068,0.027661,-0.002561,0.010793,0.018555,-0.026721,-0.000469,0.000226,-0.012579,-0.000706,-0.014296,-0.020542,0.019723,-0.010372,0.017989,-0.029905],[-0.013603,0.027038,0.001244,0.007363,-0.03828,-0.000244,0.005265,-0.023028,0.000757,-0.027235,-0.020259,0.006005,0.008459,-0.004896,0.003839,0.029509,-0.018238,0.004194,0.018145,-0.020468,0.019216,0.022605,-0.002902,0.002613,-0.000843,0.015344,0.020453,0.009747,-0.002269,-0.0515,-0.020244,-0.014354,-0.00487,-0.016166,0.012327,-0.022394,-0.028927,-0.008186,-0.00346,-0.002283,0.007462,0.015158,0.038561,0.008715,-0.015033,-0.007476,0.013515,0.009787,-0.036991,-0.019062,-0.015415,-0.036964,0.018758,-0.017979,0.032078,-0.014406,-0.006666,-0.010732,-0.025547,0.026383,-0.006172,0.038351,0.004013,0.037942,0.008325,-0.041853,-0.031774,0.009813,0.006027,-0.018893,0.009911,-0.010379,-0.008786,-0.019687,-0.011063,0.030247,-0.014679,0.037976,0.019862,0.015102,-0.026594,-0.031778,0.02104,0.01595,0.006492,0.014696,0.008476,0.019996,0.017026,0.021254,0.034417,0.003474,-0.030918,0.011027,0.00059,0.012851,-0.002519,-0.003967,-0.002612,-0.017108,-0.040151,-0.040481,-0.002925,0.018018,0.014233,-0.02555,-0.016571,-0.036433,-0.008181,0.022565,0.006427,-0.009679],[-0.003207,-0.011589,-6.7e-05,-0.023208,0.019332,-0.021588,-0.026843,0.01649,0.015401,-0.016428,0.012868,0.011336,0.006989,-0.007478,-0.008304,-0.00067,-0.000565,0.013712,-0.015728,-0.010101,0.001469,-0.005429,0.015905,0.002225,0.006064,0.005317,-0.000368,-0.023677,0.004242,-0.016947,-0.012037,-0.017139,-0.007633,-0.025687,0.027901,0.007901,0.019679,0.020401,-0.020923,0.008465,0.002362,0.00961,0.022344,0.006841,0.019006,0.010645,0.021495,0.020144,-0.027622,-0.006448,-0.006949,-0.025749,-0.00654,-0.013086,0.008598,0.003222,0.044219,-0.014592,-0.009472,-0.011781,-0.045533,0.014701,0.002595,0.006013,0.00179,0.004761,0.014057,0.021864,-0.016698,-0.02003,0.027409,-0.020083,0.016345,5.1e-05,0.022633,-0.000663,-0.017816,-6.1e-05,-0.013708,0.001083,0.008988,-0.005156,0.008629,0.000489,-0.005743,0.005329,0.00704,-0.012264,-0.005661,-0.015762,0.014668,0.015853,-0.005948,0.026798,-0.018138,0.002737,0.028147,-0.008666,-0.020835,-0.007625,0.000772,0.003343,-0.018947,-0.0125,0.015206,-0.011068,0.006101,-0.028522,-0.025025,0.004307,0.026009,0.019283],[0.000141,-0.023318,-0.007398,0.019081,-0.014889,0.002775,0.000482,0.027534,-0.009945,-0.000322,-0.00954,-0.01109,-0.027144,0.005116,0.01443,-0.020862,0.00881,-0.012512,0.003446,0.018655,0.004729,-0.001263,-0.027831,0.008311,0.019185,-0.003975,0.003304,0.027772,-0.000196,0.007539,0.014746,0.031404,0.02337,0.023883,0.002508,0.011263,-0.022929,-0.015128,0.009172,-0.030189,-0.008428,-0.042735,-0.014774,-0.042112,-0.005465,-0.002239,-0.004474,0.013903,0.022372,-0.003179,-0.009187,-0.004146,-0.008968,0.003928,-0.00208,0.013867,-0.009841,-0.014563,0.02473,-0.022055,0.027491,-0.011192,-0.000503,-0.012552,-0.001235,0.002212,-0.003751,-0.008139,-0.000516,0.015797,-0.011736,0.012164,-0.014923,0.020439,-0.005565,-0.020973,-0.001623,0.0062,-0.004041,-0.017711,-0.008647,-0.006352,-0.023509,0.026381,0.006309,-0.009604,0.017724,5.6e-05,-0.007192,0.003438,-0.014865,0.020159,0.004142,0.018278,-0.025239,-0.00765,0.007743,0.027094,-0.001273,-0.004693,0.028841,0.041061,-0.017047,0.006453,0.015697,0.006203,-0.009026,0.000565,-0.018775,-0.008471,-0.009311,0.012273],[0.002455,0.010769,-0.003688,0.015745,0.000151,-0.008469,-0.006496,-0.010848,-0.005802,-0.005649,-0.0161,0.000754,-0.009358,-0.025077,0.001672,0.010636,0.031183,0.013163,-0.010189,0.00803,-0.02109,0.00977,0.008941,0.018562,-0.019959,0.000614,-0.027057,-0.008624,0.021989,0.001964,0.013858,-0.008058,-0.025375,0.000572,-0.00609,-0.017159,-0.002084,-0.008335,-0.017996,0.015438,-0.004359,0.002308,-0.011734,0.000431,-0.008707,0.002744,0.011159,-0.03474,-0.004805,-0.03823,-0.004756,0.011154,0.000632,0.001329,-0.019576,0.012042,0.005695,-0.002885,-0.022679,0.006265,-0.006837,0.000739,0.00331,0.017371,0.007481,-0.015499,0.008106,-0.02152,-0.001365,-0.010914,0.022196,0.01804,0.003191,-0.004911,0.017387,0.019948,-0.031008,0.016333,0.015439,0.011258,-0.019881,-0.007864,0.013674,-0.004594,-0.000236,-0.003883,0.004466,0.019509,0.014267,0.012797,-0.002936,0.002596,0.017445,-0.012376,0.002545,0.005015,0.011996,-0.029073,-0.030007,-0.011558,-0.020308,0.003613,-0.037523,-0.008711,0.024087,0.025,-0.019331,0.034552,-0.011417,0.027859,-0.038553,-0.016531],[0.017416,-0.005075,-0.005338,-0.00311,-0.007454,-0.004899,0.030673,0.01825,-0.048116,-0.011386,0.001731,-0.020706,0.013394,-0.012041,-0.010213,0.003762,-0.007018,-0.002768,0.023129,-0.018328,-0.006754,0.000501,-0.016531,0.008042,0.011962,-0.000791,-0.007733,0.024054,-0.00401,0.005131,-0.003017,-0.016583,-0.003651,-0.005492,0.005018,0.009239,0.017143,0.010049,-0.005487,-0.009544,-0.015103,-0.006421,0.008836,-0.020001,0.004384,0.001034,0.00583,0.04107,-0.002177,-0.015579,-0.00097,-0.014697,0.003915,-0.008673,-0.01965,-0.023174,-0.012041,-0.020232,-0.008209,0.039006,0.007184,-0.030438,-0.026152,-0.000282,-0.006698,-0.0213,0.002638,-0.006664,-0.011856,-0.012261,0.028274,-0.007217,-0.001904,-0.010856,0.003598,-0.000597,0.008862,-0.00398,0.004843,0.013793,8e-06,-0.016752,0.003212,-0.007674,0.008163,0.00766,0.000455,0.010452,0.001917,0.002342,-0.01054,-0.011104,-0.002611,-0.006884,-0.013932,-0.004656,-0.013862,-0.016692,-0.030356,-0.014209,-0.014969,0.011078,0.002675,-0.010112,-0.008997,0.005773,0.007783,-0.004893,-0.023944,0.011211,0.013533,-0.017031],[0.015443,0.028295,-0.020844,-0.037836,-0.03693,-0.024498,0.053394,-0.026658,-0.018118,-0.034118,-0.013241,0.017206,-0.007683,-0.02432,-0.01447,0.03374,-0.016563,0.013541,0.020619,-0.017192,0.013819,-0.007892,0.025424,0.006333,-0.018517,0.022426,0.023109,0.011023,-0.013067,-0.018681,-0.011644,-0.011253,-0.003967,-0.002176,0.017349,-0.011687,0.001467,0.013904,0.016364,-0.032833,-0.033047,0.002245,0.044715,0.01451,-0.004129,0.012172,0.005275,0.0326,-0.00801,-0.031755,0.012371,0.004443,0.002989,-0.008617,0.006366,-0.001808,0.009916,0.022945,-0.011804,0.032907,-0.041487,0.003066,-0.032924,0.018069,0.006315,-0.053443,-0.029517,0.004423,0.013326,-0.037859,0.016571,-0.015261,0.013895,-0.028852,0.006173,0.00865,0.016155,0.032065,0.018789,0.018228,-0.033501,-0.011679,0.015905,-0.022307,0.002029,0.01371,0.037842,0.026238,0.027308,0.02777,0.021578,-0.001279,-0.010724,-0.038989,0.037765,-0.005689,-0.018633,-0.051935,0.002726,-0.028182,-0.033255,-0.040849,-0.034443,0.005277,-0.005941,-0.000666,-0.04401,0.01425,0.027594,0.02401,-0.045391,-0.018147],[-0.011491,0.007425,0.013379,-0.003456,0.020262,-0.006873,0.010239,-0.000997,0.018658,-0.020771,0.019287,-0.022251,-0.01142,0.022666,-0.011227,-0.007031,0.009509,0.009362,0.000395,-0.004175,0.005899,0.037743,0.006549,0.000998,0.003165,0.039543,0.008844,-0.007298,0.005967,0.000235,-0.015048,-0.026455,-0.028193,-0.039614,-0.013668,0.012348,-0.010428,0.00903,-0.003093,0.014452,0.01183,0.00706,-0.017764,0.00259,0.019561,-0.006111,0.02794,0.013271,0.028594,0.003644,0.017938,-0.001146,0.007591,-0.012945,0.031323,-0.006883,0.001653,0.004082,-0.004259,-0.007548,0.000845,-0.021369,-0.030559,-0.006202,0.008813,-0.011424,-0.026759,0.012821,-0.00386,0.023796,-0.002802,-0.013206,0.010277,-0.015363,-0.029531,-0.03366,-0.007595,-0.004933,-0.02397,-0.005814,-0.011835,0.002987,0.029634,-0.025159,-0.008752,-0.00652,-0.035034,-0.01048,0.001483,0.00254,-0.006062,0.008634,-0.007967,0.010194,-0.016494,-0.024285,0.018579,0.020324,0.015898,-0.020059,-0.038676,0.000446,-0.020038,0.00458,0.006583,-0.001588,0.025091,-0.042129,-0.010047,-0.015673,-0.000542,-0.01276],[0.012626,0.00528,0.010179,-0.000861,-0.013632,-0.016961,-0.011628,-0.019807,-0.00037,0.014375,0.024994,0.006001,0.017426,-0.000431,0.015398,0.008293,-0.017476,-0.010177,-0.003627,-0.000964,0.001135,-0.003857,0.020589,-0.006321,-0.006611,0.000271,0.027539,-0.010602,0.008377,0.021113,0.006679,-0.033102,0.00261,0.016374,0.00722,0.011853,0.013418,-0.002014,0.002767,0.011704,-0.009768,0.007551,0.030859,0.002341,-0.000959,-0.018051,0.005777,0.010669,0.024627,-0.030199,-0.011414,-0.008577,-0.020733,-0.006786,-0.008657,0.001065,-0.006332,0.000797,-0.007801,0.010434,-0.012458,0.017215,0.00745,0.01143,0.010426,-0.008324,-0.002778,-0.016003,-0.022547,0.0205,0.000101,0.002992,-0.008523,-0.002391,-0.009161,0.001393,-0.015199,0.002672,0.009943,-0.007302,-0.001346,-0.006037,-0.013164,0.005629,0.017761,-0.014643,0.011432,-0.020071,-0.00706,-0.007589,0.01467,0.007624,0.004489,0.002519,0.011536,0.009735,-0.00578,0.001298,0.028073,0.000667,-0.013363,-0.007865,-0.031326,0.029078,-0.004303,-0.027113,-0.018954,-0.003375,-0.005222,0.006761,-0.005078,0.001841],[0.024157,0.033629,-0.008515,-0.014165,-0.010446,-0.038803,0.026514,-0.016081,0.001037,-0.024799,-0.01607,-0.003097,0.003424,0.004886,-0.0245,0.017781,-0.043147,-0.000324,-0.009676,-0.029945,0.026368,0.017341,-0.008598,0.021025,0.001842,0.027152,-0.000101,-0.024343,-0.000277,-0.007001,-0.025276,-0.0029,-0.00432,-0.015323,-0.016657,-0.027835,0.009389,0.023689,0.035219,0.012302,-0.019551,0.025253,0.041653,-0.021641,0.039227,-0.014832,0.012962,0.031608,-0.032678,-0.016387,0.017762,-0.031752,-0.001141,-0.036293,0.002029,-0.049552,0.015413,0.013625,-0.010962,-0.012461,-0.024245,0.0014,-0.024816,-0.010989,-0.019197,-0.01827,-0.019335,-0.004565,0.016386,-0.009004,0.013594,-0.028989,0.033975,-0.015462,-0.018151,-0.0034,0.029633,0.018672,0.002603,0.005996,-0.019509,-0.014787,0.008795,-0.007732,-0.020501,0.015228,0.000321,0.004022,0.028681,0.034827,0.015431,-0.026578,-0.0095,-0.019992,0.001884,-0.011836,0.007139,-0.010674,-0.045342,-0.049991,0.02979,-0.040572,-0.024044,-0.012755,-0.025544,-0.033545,-0.040885,-0.003288,-0.045497,-0.000142,-0.013167,-0.031603],[0.008271,-0.030477,0.011538,-0.016868,0.036375,0.028828,-0.024406,0.033109,-0.001247,0.014505,0.060803,-0.005345,0.025126,0.069932,-0.014533,-0.043856,0.023936,0.020695,-0.000755,0.02335,-0.047137,0.009797,-0.004378,-0.036873,-0.000767,0.002222,0.011449,0.000381,0.002446,-0.003634,-4.7e-05,0.035884,0.005639,-0.006386,0.015647,0.018517,0.003986,-0.014789,-0.004717,-0.027939,0.023943,-0.003037,-0.016784,-0.026288,0.004054,-0.00037,-0.042748,0.004465,0.020768,0.053296,0.020424,0.054294,-0.027866,-0.012594,0.012939,0.005004,0.014386,-0.003421,0.008921,-0.009649,-0.021411,-0.005169,0.032598,-0.018635,0.042707,0.031558,-0.002897,0.014018,-0.038539,0.00017,-0.048098,0.011387,-0.014537,-0.011272,-0.010287,-0.013472,0.03008,-0.022986,-0.02526,-0.048365,0.021114,0.006301,-0.006271,0.021376,-0.031766,-0.034831,-0.005569,-0.028951,-0.013896,-0.041444,-0.036121,-0.016386,-0.005792,0.020045,-0.013094,-0.005582,0.008879,0.013416,-0.018307,-0.013666,0.017705,0.001259,0.000151,0.002475,-0.005406,-0.011242,0.06707,-0.013085,0.040304,-0.005874,0.04806,-0.013675],[-0.012902,0.008168,0.00233,0.009694,-0.028223,-0.034105,-0.025487,0.017227,-0.032557,-0.001808,0.042153,-0.030216,-0.002891,0.032859,-0.016718,0.000296,0.009396,0.022708,-0.005284,-0.003063,-0.014794,0.028144,-0.022077,0.008031,-0.031761,-0.009954,-0.013415,-0.006367,-0.018935,-0.014269,-0.02431,-0.021434,-0.004976,9.3e-05,-0.005839,0.016161,-0.026779,-0.002767,-0.00995,-0.01122,-0.012803,0.006115,-0.006977,0.035492,0.021346,0.016514,0.010004,0.015365,-0.018113,0.007089,0.023948,-0.005352,-0.000758,-0.0034,0.009284,-0.004801,0.011251,-0.008742,0.006928,0.015893,0.005502,-0.046491,0.021508,-0.016135,0.015163,0.007939,-0.019647,-0.004094,-0.009277,-0.013867,-0.023361,-0.012083,0.003867,0.01365,0.003689,-0.032137,0.017262,-0.013796,-0.013553,-0.016242,-0.010214,-0.006408,0.003624,-0.0103,-0.02592,-0.028505,-0.016718,-0.017639,-0.001279,0.003715,0.002169,-0.006561,0.011022,5.4e-05,0.005442,-0.000623,-0.00064,-0.004969,-0.000874,0.005254,-0.005825,0.043002,0.00655,-0.039021,0.010992,0.01225,-0.008674,-0.013767,-0.029245,0.000601,0.015053,-0.017327],[-0.024928,-0.003732,-0.015464,0.017921,0.000428,0.032489,0.003646,-0.001263,-0.028721,0.009822,-0.001864,-0.003331,-0.004663,-0.025554,0.018905,0.010844,0.002175,-0.003265,-0.001213,-0.003706,-0.014997,0.00257,-0.024599,-0.02013,0.009979,-0.026636,-0.020218,0.025079,-0.00251,0.017595,0.009049,0.033371,0.009681,0.002606,0.010636,0.010419,-0.002959,-0.030437,-0.00881,0.005643,0.005176,-0.039147,-0.015776,-0.008513,-0.000275,0.014642,-0.011554,0.030851,-0.002842,-0.002941,0.006554,0.03431,-0.013865,0.02342,-0.006948,0.029097,0.027597,-0.003258,-0.008159,-0.005707,0.014059,-0.013861,0.019996,-0.018895,0.015379,0.033382,0.007648,-0.007736,-0.01224,0.005198,0.00609,-0.001779,0.007269,0.021159,0.008535,-0.009115,0.000239,-0.005642,0.000937,-0.005302,0.016471,0.022324,-0.028956,-0.022369,0.008522,-0.00636,-0.01818,0.005939,0.008515,-0.031519,-0.00015,-0.006125,0.000788,-0.023636,-0.022049,0.012296,0.024894,0.031734,0.008683,0.015421,-0.020067,-0.005598,0.018586,0.006157,0.02199,0.010918,0.00056,0.034598,-0.012085,-0.006294,0.040785,0.022274],[0.011806,0.000968,-0.006379,-0.014172,-0.006395,-0.011664,-0.013471,-0.018382,-0.004948,-0.017415,-0.018493,0.061527,0.022081,-0.033467,0.018094,-0.028546,-0.010564,0.001005,0.027399,0.016828,0.024014,-0.015297,0.013371,0.027484,0.016043,-0.014414,0.020675,0.020187,0.025023,-0.041297,-0.005375,-0.009837,0.024017,-0.01933,0.002317,0.008773,-0.012217,0.007429,-0.00145,0.03512,-0.020702,0.022384,0.015192,0.023179,-0.032914,-0.023067,-0.004135,-0.014822,0.01936,-0.026933,-0.036941,-0.018794,-0.014158,0.011774,-0.021418,-0.019961,-0.016431,0.027654,0.017791,0.01931,-0.030985,0.064303,0.02336,0.030239,0.029112,0.01848,0.025911,-0.012303,-0.024353,0.005431,0.041456,-0.021685,0.011133,-0.010168,0.013064,0.03392,-0.010245,0.011277,0.018073,0.043572,-0.012074,0.001794,-0.026644,-0.024804,0.014547,0.020006,0.029629,0.030284,0.003206,0.028181,-0.013159,0.042382,0.015209,-0.039432,0.021383,0.030264,0.008906,-0.039639,0.045722,0.020264,0.008834,-0.003821,-0.040151,-0.006732,0.004109,0.020764,0.007169,0.02623,-0.026464,0.001179,-0.025674,0.030921],[0.000113,0.006556,-0.008483,0.002798,-0.01933,-0.000948,-0.016912,-0.007839,0.012053,0.003706,-0.008569,-0.021956,0.01199,-0.01619,0.036312,-0.011208,0.000429,0.017083,0.017796,-0.016683,0.004963,-0.004957,0.0043,-0.014723,0.006611,-0.013091,-0.006928,0.002349,0.023276,0.016579,0.002778,-0.009826,0.000652,-0.002903,0.009396,0.022703,-0.008849,0.004946,0.006166,-0.013083,-0.033596,0.022347,0.02024,-0.001501,-0.021828,-0.007178,-0.026567,0.005163,-0.011953,0.023111,-0.026557,0.004971,-0.007647,0.010486,0.02923,-0.009465,0.038555,-0.015289,-0.005543,-0.008655,0.002719,0.017552,0.014135,0.000398,-0.00433,-0.005174,0.007032,0.009903,0.006715,-0.004983,0.000202,0.01654,-0.018395,0.014969,0.011201,0.010701,0.001375,-0.002102,-0.009557,-0.001057,-0.005478,-0.010048,-0.035307,0.021982,0.009787,0.002624,-0.020197,-0.027463,-0.011766,-0.012483,0.01141,-0.009971,-0.008718,0.005988,0.017399,-0.0025,0.027686,0.022256,-0.002266,-0.004293,0.025229,0.002632,0.01698,0.028193,0.006528,0.028689,0.035577,0.005006,0.051368,0.010829,0.006732,-0.001871],[-0.033677,-0.015221,0.022125,0.017457,-0.011951,0.035894,-0.009775,0.015953,-0.004444,-0.006392,0.001211,0.001184,0.000999,0.023298,0.014121,-0.020677,-0.000503,0.009904,-0.011133,0.008739,0.032595,-0.00935,-0.006454,-0.020121,-0.029654,-0.006072,0.000305,-0.011813,-0.007806,0.026219,-0.011834,-0.011603,0.009829,0.00193,0.009148,0.01263,0.007609,-0.010319,-0.024956,0.009885,0.00402,-0.002108,-0.001753,-0.012161,-0.003092,0.002065,-0.012557,0.013359,-0.021173,0.013019,-0.007631,0.018208,-0.014355,-0.010557,-0.035461,0.005741,-0.024776,-0.03291,0.006031,0.002561,0.006128,0.007212,0.040165,-0.00883,0.039256,0.019147,0.030613,-0.013329,-0.009535,-0.01141,-0.012267,-0.012376,0.021681,0.021835,0.010983,-0.021501,-0.008042,-0.010344,0.020055,0.011481,0.024099,0.015606,0.002843,0.035332,0.008818,-0.003493,0.005545,-0.00878,-0.005931,8.2e-05,0.004149,0.003644,-0.000707,0.004376,0.000364,0.018492,-0.032341,-0.010071,0.014685,-0.021912,-0.007043,-0.017481,-0.00025,0.025905,0.017983,-0.010615,0.013962,-0.005453,0.011216,-0.031849,0.034779,0.000317],[0.01883,0.023934,-0.006266,-0.014913,0.000532,-0.008161,-0.001139,0.008954,-0.024882,0.011475,-0.025361,0.006244,-0.000349,0.010863,-0.01805,-0.005442,-0.028534,0.018611,0.018369,-0.010703,-0.019384,-0.0108,-0.020848,0.005697,-0.018313,-0.0025,0.004669,-0.026842,-0.015152,-0.018461,0.000106,-0.004171,-0.014229,0.010168,-0.018473,0.003191,0.006952,0.023512,-0.005311,0.004185,0.007634,-0.015622,0.018723,-0.014427,0.016962,-0.004696,0.029807,0.00443,-0.019605,-0.006728,0.001718,0.003745,0.019445,-0.014245,0.012331,-0.021456,-0.017097,0.000526,0.01013,0.004298,-0.007721,-0.004096,0.016253,0.000533,-0.031444,0.004802,-0.020051,0.021957,0.030257,-0.008312,0.028583,-0.004848,-0.001677,0.00098,0.000902,0.006268,0.011884,0.024231,0.0316,-0.003913,0.016842,-0.021246,0.017303,-0.00453,-0.02162,0.012552,-0.02046,-0.009763,-0.003519,-0.014065,0.014444,0.023216,-0.004539,0.003424,0.017154,-0.00459,-0.030063,-0.030697,-0.050874,-0.018327,0.028615,-0.014624,0.003218,0.010986,0.045148,0.00633,-0.042466,0.004697,-0.021811,0.012494,0.021357,-0.007509],[0.004834,-0.005211,-0.023986,-0.007997,-0.014954,-0.009628,0.007679,-0.018735,0.007044,0.012322,-0.024069,-0.012238,0.019428,-0.003607,0.009419,0.00949,0.036625,0.03196,-0.001344,-0.00633,0.007034,-0.015126,0.034562,0.008883,0.005865,0.004865,-0.007666,0.015576,0.01671,-0.007075,0.014241,-0.008599,0.000322,-0.004806,-0.032364,-0.005409,0.005956,0.011924,-0.0306,-0.006846,-0.035541,-0.010844,-0.003417,-0.005274,-0.0241,0.005348,-0.021253,-0.000234,0.006841,0.000689,0.000417,0.025726,0.008664,0.001993,0.002213,0.000861,-0.059807,-0.001643,-0.007467,-0.01667,-0.020952,0.023377,-0.006954,0.035962,-0.002618,-0.015066,0.001138,0.015759,0.016617,0.008584,0.000314,-0.016852,0.000506,0.0007,-0.00927,0.029117,-0.007615,0.007842,0.00673,0.019857,0.0012,0.021384,0.015489,0.022069,0.024443,-0.003561,0.001555,0.003915,0.005885,0.018183,0.003308,0.023281,0.022157,0.001166,0.027453,0.006054,0.013034,-0.049408,0.017315,-0.00678,0.020821,-0.001902,0.016341,-0.024446,0.013104,0.009291,-0.012277,-0.012175,0.007072,-0.02814,-0.004504,-0.003948],[-0.01788,-0.012229,0.010834,-0.019492,0.015684,-0.012471,-0.022467,-0.011555,-0.026775,-0.00851,-0.018925,-0.002523,0.025525,0.028056,-6.4e-05,-0.006315,0.002317,0.006219,0.018067,0.009119,-0.009553,0.028324,-0.022627,-0.013714,-0.008851,-0.012257,-0.008577,-0.010878,-0.033465,0.015279,-0.003943,0.002351,-0.00152,-0.003457,-0.006413,-0.01776,-0.020918,-0.017701,-0.01393,-0.007612,-0.00479,0.016598,-0.014895,0.006798,0.014158,-0.004793,-0.004543,0.019665,0.020894,-0.019923,-0.012765,-0.025602,0.00796,0.002262,-0.00542,-0.030077,0.010243,9.5e-05,0.020624,0.005069,-0.000141,-0.025612,0.009511,-0.023188,0.026228,0.011003,-0.012827,0.008235,-0.006572,-0.011206,-0.015625,-0.006892,0.003607,0.007143,0.005879,-0.013278,0.036402,-0.020449,-0.021831,-0.023976,0.031346,0.002244,0.026913,0.011853,-0.022438,-0.023998,-0.010353,0.016179,-0.007891,-0.006713,0.011066,0.004094,-0.00417,0.032682,-0.001452,-0.00758,0.000705,-0.005036,0.013435,0.00621,-0.024033,-0.018967,0.025705,0.00644,0.00568,0.013875,0.025277,-0.033975,-0.001184,-0.006316,-0.026349,-0.011444],[0.015016,0.0027,0.000947,-0.002055,0.002923,-0.019255,0.008647,-0.023893,0.010302,-0.018103,-0.00021,-0.012805,-0.003557,-0.015799,0.007623,-0.000616,-0.013871,-0.009138,-0.004976,0.000848,0.028185,-0.026728,0.006306,-0.013903,-0.008545,-0.008085,0.005937,-0.012109,0.016706,-0.00496,-0.021666,0.003409,-0.018522,-0.023668,-0.004184,-0.008993,0.012587,-0.013248,0.010266,-0.002477,0.006759,-0.036631,0.009827,0.008762,0.006649,-0.018214,0.021997,-0.01713,0.001248,0.001121,0.013529,-0.013797,0.019902,0.017041,-0.021907,0.019833,0.035798,0.031206,-0.010467,-0.019061,-0.020847,0.020077,-0.012417,0.006034,-0.013695,0.00104,0.021502,0.005722,0.021646,-0.008413,0.00621,0.015912,-0.002939,-0.007946,-0.012332,-0.008677,-0.005443,0.003547,-0.010208,-0.004084,0.01612,-0.007248,-0.003929,-0.008705,0.004851,0.00785,0.010476,0.014266,-0.026122,0.001438,0.013338,-0.01053,-0.02545,-0.01945,-0.013056,-0.015133,0.005357,-0.002852,-0.033154,-0.000921,-0.000731,0.024702,-0.008158,-0.026835,0.020708,-0.004247,-0.02134,-0.019321,-0.035931,-0.009724,-0.010861,-0.002754],[-0.007648,-0.00431,0.001554,-0.007323,0.003613,0.016255,0.003772,0.004418,-0.017658,-0.002598,0.022377,-0.002218,-0.01555,0.021264,0.025151,-0.0033,0.007531,-0.018185,-0.012612,0.007372,-0.008761,0.003384,-0.009507,-0.016561,-0.022027,-0.003735,-0.014344,0.029216,-0.016573,0.024044,0.027527,0.007773,0.014582,0.043443,-0.010211,0.006427,-0.006452,-0.032147,0.009905,-0.035859,-0.019504,-0.003592,-0.036856,-0.026384,0.008526,0.011151,0.002516,-0.006526,-0.003763,-0.022594,-0.021147,0.009928,0.01426,-0.005084,0.008089,0.03644,-0.049069,-0.000847,-0.020181,-0.00481,0.017719,-0.030062,-0.011551,-0.025683,0.010172,0.000463,-0.00394,0.017423,-0.004714,0.0035,0.019853,-0.004543,-0.007386,-0.006005,-0.004202,-0.037669,0.001848,0.002658,-0.009833,-0.007694,0.008499,-0.003055,0.022846,-0.013892,0.021094,-0.001693,-0.008479,-0.000246,0.029344,0.01141,-0.007435,0.001859,-0.017586,0.004236,0.001597,-0.004592,-0.011655,0.043609,0.010113,-0.013228,0.018206,-0.000832,0.005308,-0.003459,0.001803,-0.012661,0.015387,0.023756,0.015671,0.021078,0.007695,0.017071],[-0.001406,0.000617,0.015471,0.012766,0.000433,-0.006801,-0.015393,-0.010848,0.012569,0.009598,0.004411,-0.011034,0.00558,-0.003474,0.009199,-0.0081,0.017564,0.017014,-0.012426,0.034278,-0.029365,0.028027,0.000918,-0.013213,0.02351,-0.002496,-0.019786,0.022666,0.01743,0.030071,0.029831,-0.01968,0.021259,-0.009723,-0.013597,0.006063,-0.008931,-0.02065,-0.027373,-0.002498,-0.020102,-0.004245,-0.01177,0.008062,-0.01485,-0.023686,-0.005986,-0.009212,0.021781,-0.002325,-0.024579,-0.010588,-0.004561,-8.8e-05,-0.020992,0.017059,0.018595,0.012622,0.019992,-0.03019,0.019878,0.013333,0.004775,-0.025191,0.007398,-0.010825,0.014588,-0.000675,-0.012557,0.011345,0.015842,0.003371,0.004445,0.000869,0.000768,-0.00714,-0.021314,0.003234,0.002897,0.003814,0.011777,0.000213,-0.026198,-0.001989,0.002027,-0.022182,0.019137,0.002672,-0.014553,-0.039269,0.008527,0.015157,0.018032,0.000311,0.020969,-0.012435,-0.016227,0.001647,-0.005833,0.012265,0.014962,0.012327,0.005732,0.051925,0.015865,0.03024,0.012881,0.011518,0.008379,-0.006457,0.013226,0.004544],[0.016389,-0.00339,0.010728,-0.004326,-0.010536,0.002305,-0.033428,-0.013111,-0.017543,0.002338,0.008856,0.008121,0.029945,-0.040095,0.013888,-0.02768,0.027979,0.022259,0.014189,0.003862,0.034025,-0.015403,0.009765,-0.004487,0.025982,-0.00702,-0.033041,0.010888,0.000425,-0.012893,0.001572,-0.013544,0.012917,-0.028799,-0.02697,0.035961,-0.019981,0.002642,0.025828,0.051245,0.009386,-0.005135,-0.00478,-0.013486,-0.030905,0.026977,-0.022261,-0.010485,-0.002371,-0.000547,-0.004375,0.011814,0.040934,-0.000348,-0.024982,0.042448,0.006543,-0.010506,-0.000945,-0.002502,0.001776,0.013117,-0.007566,0.02849,-0.009084,0.003623,0.021527,0.001048,-0.021924,0.000248,0.019984,0.004982,-0.027306,0.01307,0.007117,0.015342,-0.015725,-0.003024,-0.002158,0.023304,-0.036909,0.013352,-0.000945,0.024423,0.010822,0.023135,0.019813,0.022607,0.001754,-0.008114,-0.029206,0.021127,-0.018685,-0.001646,0.015446,0.040304,0.020312,-0.046959,0.007369,0.01163,0.008424,-0.016138,0.001385,0.019713,0.00538,0.01879,0.014127,0.01736,0.016812,-0.016788,-0.008882,0.027048],[-0.008435,0.004881,0.000779,0.014059,0.004363,-0.001447,-0.01237,0.001997,0.015548,-0.009712,-0.023121,-0.004345,-0.000275,-0.017623,0.019934,0.008949,0.007686,0.007827,0.026334,-0.014466,0.014797,0.010406,0.015269,0.006467,-0.016316,0.008322,-0.00566,-0.000444,-0.009403,-0.018268,-0.010333,-0.01113,0.001591,-0.002329,0.004635,0.007124,-0.006483,0.002473,-0.001865,0.001341,-0.026717,-0.020433,0.00885,0.008646,-0.008835,-0.019196,0.014067,-0.008218,-0.026771,-0.010518,-0.026931,-0.00078,0.01665,-0.010965,0.010576,-0.022096,-0.005401,0.001024,-0.009856,0.031519,-0.002851,-0.002389,-0.00578,-0.005378,0.009158,0.001694,-0.011259,0.002386,-0.013266,-0.030478,0.000106,-0.011922,-0.024775,-0.033778,0.022697,-0.016249,-0.014657,0.012382,-0.026645,0.016656,-0.007861,0.001588,0.009657,-0.010439,0.007421,0.004406,0.004719,0.003191,-0.000718,-0.002262,0.005244,0.024388,-0.001176,-0.004204,0.007178,0.004182,0.009169,-0.007187,0.004899,-0.007548,-0.024279,-0.049993,-0.000423,-0.004712,0.010817,-0.002069,0.000327,0.012505,3.6e-05,0.003954,-0.004427,0.023734],[-0.0111,0.010697,0.017642,0.029559,0.002564,-0.010054,-0.033211,0.014811,-0.005786,0.027717,-0.012206,0.002287,0.023127,-0.011194,0.008392,0.014567,0.013319,-0.003378,-0.012549,-0.010824,-0.024422,-0.001534,0.015531,-0.006448,-0.00889,0.011403,-0.020454,0.003345,-0.058391,0.024506,-0.016747,-0.01274,-0.028798,0.024711,0.031848,-0.013798,0.027894,-0.00662,-0.04195,-0.024621,0.009103,-0.010925,0.009695,-0.012883,0.022743,-0.017702,-0.014782,0.002217,-0.004874,0.010936,-0.004774,0.01775,-0.035369,-0.018223,0.012327,0.010562,0.018826,0.017013,0.004023,-0.031136,0.012395,0.012121,-0.01551,-0.013586,0.02802,0.013242,-0.001711,-0.006297,-0.013097,-0.004635,-0.017173,0.00774,-0.013068,0.011823,0.002601,0.012071,0.01429,-0.026658,0.003367,-0.022802,0.003396,-0.000635,0.000361,-0.034448,0.012591,-0.007217,0.005389,0.007697,-0.008063,-0.015855,-0.002103,0.008937,0.008781,0.005866,-0.006423,0.005285,-0.011723,-0.028116,-0.010749,-0.008804,0.005944,-0.026622,0.001434,0.005551,0.001787,-0.02168,0.037113,-0.008263,0.009083,-0.006249,0.0145,0.008128],[-0.02372,-0.009045,0.014782,0.013011,-0.000751,0.019083,-0.006345,0.023125,-5.5e-05,0.032964,0.010034,-0.001435,0.003204,0.003874,-0.001608,-0.015738,0.03364,-0.010119,-0.018528,-0.005564,0.005446,-0.007939,-0.026875,-0.024696,-0.004879,-0.003985,-0.026898,-0.008958,-0.002573,0.022753,0.00447,0.033956,0.004484,0.040072,-0.016272,0.031434,-0.025743,-0.004043,-0.017391,0.017732,0.040047,-0.023771,-0.018596,-0.004475,-0.020608,0.00266,-0.035372,-0.026004,0.002886,0.014109,0.019972,0.000801,-0.00593,0.012734,-0.013939,-0.000754,-0.01562,-0.025401,0.003825,-0.013142,-0.010069,-0.02777,-0.000989,-0.000101,0.011541,0.012062,0.026393,-0.017433,-0.025109,0.005479,-4.5e-05,0.036648,0.003048,0.017704,0.009909,-0.006452,0.0053,-0.028527,-0.02522,-0.028366,0.010453,0.006746,-0.009939,0.008668,0.010787,-0.030267,-0.010551,0.006081,-0.010687,-0.014129,0.007337,0.008308,0.015747,-0.002705,0.016202,-0.009998,-0.009983,-0.024339,-0.013508,-0.013163,0.00835,0.029083,-0.01644,0.013739,0.009177,0.022594,0.020488,0.012156,-0.050772,-0.02523,0.000999,-0.018248],[-0.003248,-0.004981,0.033554,0.019866,-0.004969,-0.003517,-0.020717,0.002448,0.023894,0.00322,0.000688,0.003738,0.011131,0.004625,0.004076,-0.017735,-0.005974,-0.026487,-0.005372,-0.004796,-0.007559,-0.011154,0.005793,0.016614,-0.016895,-0.021589,0.032653,0.003645,-0.0313,0.003935,-0.007588,-0.007718,-0.020819,0.022659,-0.004999,0.011408,-0.007816,-0.005204,-0.006915,-0.010012,0.001603,0.051846,0.001614,0.001871,-0.012335,-0.005481,0.008426,0.019198,0.002951,-0.004867,-0.011742,0.005513,-0.009635,-0.033416,-0.026361,-0.004313,-0.035538,-0.000591,0.010185,0.005078,0.001774,0.003267,-0.00884,0.004597,-0.010649,-0.006375,-0.015738,0.003323,-0.018687,-0.003428,-0.003168,-0.012117,-0.010157,0.012099,0.004199,-0.001615,0.014084,-0.016501,-0.001422,-0.018581,0.001996,0.016423,0.035297,-0.007265,0.011,0.018664,-0.004795,-0.019271,-0.00504,-0.005241,0.014961,-0.016477,-0.004903,-0.001939,0.001367,0.026342,-0.004528,0.009414,-0.001343,0.009206,-0.00442,-0.013459,0.002423,0.021881,0.031366,0.014897,-0.000756,-0.011051,-0.008235,-0.001595,0.001209,0.006286],[-0.019418,0.003557,-0.006559,-0.002668,0.007026,0.002753,-0.012079,-0.005379,-0.020266,0.002798,-0.015338,-0.036497,-0.032894,0.028582,-0.003651,0.01805,0.002231,0.016216,0.009715,0.015924,-0.010243,0.007273,-0.010337,0.01371,0.005871,-0.011687,-0.001816,-0.004764,-0.014764,0.012791,0.012701,0.041199,-0.003226,-0.029396,-0.020989,-0.011919,-0.002677,0.001211,-0.011708,-0.007978,-0.001822,0.018998,-0.026902,0.014172,0.020244,-0.011055,0.001994,-0.012621,-0.004167,0.02956,0.020367,-0.022104,0.020841,-0.036759,0.022491,0.014519,0.032303,-0.004133,0.001321,0.005125,0.00183,0.002978,0.009355,-0.039639,0.012747,0.012423,0.001346,-0.002706,-0.003379,0.003366,-0.022482,0.008725,0.011284,0.007666,0.013343,-0.02407,0.023571,0.005642,-0.007698,-0.02246,0.038346,0.005165,0.03222,0.00187,-0.007206,-0.022549,-0.007971,-0.005378,-0.012332,-0.004122,-0.009595,-0.011268,-0.00601,-0.006388,-0.017259,-0.015006,0.033724,-0.001811,0.035688,0.016073,0.005398,0.03902,-0.019189,-0.007349,0.001871,0.002551,-0.031237,-0.025192,-0.040073,0.010707,0.007571,0.009264],[-0.002503,0.02337,-0.006946,-0.011589,-0.000561,-0.001387,0.025571,0.017208,-0.011802,-0.005706,-0.006088,0.046616,-0.008501,-0.023038,-0.004734,0.016714,0.015655,0.011179,-0.000303,-0.010076,0.020287,0.00558,0.042038,0.004741,0.00089,0.010485,0.014744,0.023164,0.020748,-0.035916,0.016905,-0.00346,0.01808,-0.032643,-0.002293,-0.004964,0.012523,0.021209,0.002381,0.00457,0.004376,-0.018835,0.024329,-0.019868,0.00311,-0.008021,-0.015195,-0.015286,0.005136,-0.001273,-0.014794,0.022447,-0.020453,0.00825,0.003136,-0.010898,0.012864,0.005301,-0.001472,-0.002695,-0.024187,0.051795,-0.017705,-0.00812,0.030296,-0.015465,-0.02783,-0.007142,0.00491,-0.001676,0.026399,-0.015008,0.013253,-0.015272,0.000538,-0.006391,-0.029694,0.040404,0.038681,0.026227,-0.03329,0.003977,0.000973,0.012487,-0.025626,0.016142,0.000274,0.023356,-0.013577,-0.004284,0.004217,0.025363,0.001699,-0.007213,0.003514,0.011971,0.002412,0.056494,0.008526,0.000341,-0.002398,-0.021957,-0.00051,-0.002601,-0.010623,0.013886,0.001896,0.004023,0.016426,0.024835,-0.013326,0.021313],[0.016882,-0.012245,-0.004993,0.030197,-0.006068,0.002307,0.006459,-0.00676,-0.006217,0.01043,0.028114,0.009466,0.016237,0.018006,-0.007104,-0.025811,0.009677,-0.008566,0.009131,-0.01712,0.004841,0.010455,-0.011513,-0.004038,-0.029845,0.016495,-0.023802,-0.013712,-0.003483,0.021199,-4e-06,-0.004027,-0.009215,-0.005639,0.058247,0.021585,-0.001997,0.017067,-0.027866,0.002928,0.014733,0.00289,0.015247,-0.014131,-3.3e-05,-0.013532,-0.006642,0.005627,0.021845,0.008288,0.014707,0.000393,-0.025585,-0.015535,0.000693,0.001704,0.020631,-0.03098,0.012659,0.008119,0.026788,-0.005324,-0.002856,0.005838,-0.003821,0.032791,0.014558,0.006404,0.010049,0.009655,-0.011451,0.02154,-0.023044,-0.005664,-0.029961,0.007929,0.005879,-0.01004,0.007166,-0.018166,-0.017259,0.014891,0.018324,0.000211,-0.001845,0.002949,0.00917,-0.021832,-0.01705,-0.002287,0.00399,0.001197,0.001908,0.004608,-0.022135,0.007777,0.018339,0.029857,-0.009813,-0.020425,0.024116,0.011753,-0.038619,-0.007074,0.011155,0.004605,0.039525,-0.048434,-0.057792,-0.013482,0.002784,-0.045427],[0.002855,0.00339,0.011726,-0.000956,-0.010524,0.014593,-0.00043,-0.004872,0.014401,0.008913,0.014451,0.028598,-0.011241,-0.019124,0.001953,0.002922,-0.014266,0.026408,-0.001124,0.024901,0.027758,0.009069,0.015375,-0.017242,0.007683,-0.029404,-0.000455,0.023864,0.001098,-0.010814,0.015596,-0.029826,0.010034,-0.008299,0.007501,0.001708,0.007289,0.007393,0.009424,0.009691,-0.009679,-0.029295,0.009158,-0.025986,-0.011632,0.03263,0.009031,-0.010858,0.028416,0.03014,0.012029,-0.013557,-0.020822,0.000642,-0.03679,0.003173,-0.018364,0.002204,0.009632,-0.024277,0.017788,-0.001106,-6.2e-05,0.028266,0.023459,0.024302,0.008072,0.003627,-0.019352,0.003788,0.012606,0.010162,0.008974,-0.001286,0.001779,0.030643,-0.005749,0.006111,-0.015515,0.005082,-0.000671,0.01696,-0.023312,0.014975,-0.006726,0.016515,0.010627,-0.004994,0.010533,-0.003061,0.010199,-0.006139,0.00328,-0.005643,-0.005595,0.023622,-0.001208,-0.004678,0.001962,0.006107,0.0153,-0.017972,-0.034985,0.014832,0.015221,0.017768,0.031044,0.011356,0.001687,0.012116,-0.038439,0.014975],[-0.004082,-0.008813,0.001741,0.008309,-0.006209,-0.017048,0.019507,0.006988,-0.018666,-0.027037,-0.037188,0.01523,0.016264,0.014084,-0.015792,0.003972,-0.001879,0.014915,-0.002898,0.009727,0.038522,-0.009325,-0.006358,-0.012878,0.007511,0.022421,0.011549,-0.023203,0.012149,0.027806,-0.023704,-0.051644,-0.006849,0.003187,-0.007818,-0.009099,0.02284,-0.004541,0.013174,0.006907,0.021518,0.007486,0.015693,0.018154,0.018097,-0.017548,0.034631,0.001902,0.018566,-0.014551,-0.021204,0.000931,-0.004567,-0.002259,0.018058,0.000539,-0.013514,0.000863,0.007306,0.011822,-0.021419,-0.01401,0.020332,0.009766,-0.027471,-0.015414,0.002129,0.005164,0.008243,0.007575,0.005932,0.001092,-0.004159,-0.01496,0.020933,0.001376,0.005939,0.024251,0.021411,-0.008728,0.0159,-0.015617,0.011673,0.012046,0.002018,0.011735,0.019289,-0.01534,-0.001272,0.018505,0.010254,0.01141,0.007652,-0.010455,0.017658,0.013836,-0.033867,-0.012283,-0.010058,-0.010949,0.011654,-0.006791,0.019803,-0.007463,0.010506,-0.005073,0.001917,-0.005831,0.019879,0.013649,0.013458,-0.034382],[5.9e-05,-0.010474,0.004534,-0.013385,-0.008874,0.020693,0.029515,0.018111,-0.008437,0.014353,0.013014,-0.034343,-0.009451,0.040727,-0.006483,0.005626,-0.006264,-0.010899,0.023775,-0.027651,0.00268,0.026774,0.007018,0.002019,-0.027165,0.035013,0.031035,-0.006412,-0.019661,-0.012791,0.003498,0.011983,-0.019613,-0.016754,-0.043687,0.018511,0.01218,0.004359,0.026493,-0.01435,-0.020545,0.017624,-0.00243,-0.01924,0.021269,0.025245,0.007962,0.020425,-0.029997,-0.000806,0.031382,-0.005712,0.018256,-0.008014,0.009531,-0.008658,-0.019398,0.021344,-0.007565,0.012757,0.032476,-0.012982,-0.001783,-0.025499,-0.016042,0.004062,0.000259,0.027137,0.024303,-0.016294,-0.021922,-0.027768,-0.007365,-0.006019,-0.019835,-0.030047,0.033719,0.019291,0.004515,-0.04688,0.037646,-0.002098,0.040607,-0.029578,0.00327,-0.033409,-0.033122,-0.038021,0.009875,0.008223,-0.010231,-0.005971,-0.001333,0.007447,-0.016278,-0.025322,-0.030121,0.004676,-0.00768,-0.024207,-0.026159,-0.025016,-0.002913,-0.020896,-0.030399,0.001681,-0.034011,0.000681,0.00085,-0.007828,0.026003,0.000352],[0.001055,0.032583,-0.010962,-0.02619,-0.012278,-0.023137,0.003722,0.000432,-0.010694,-0.016062,-0.042926,0.011792,0.001229,-0.011186,0.012687,0.043258,-0.002637,-0.002752,0.028904,-0.018287,0.023882,0.018629,0.004269,0.003305,-0.017083,0.033408,0.011801,0.001799,-0.026772,-0.020277,-0.008466,-0.005372,-0.027399,-0.046716,-0.021787,-0.026371,-0.00456,0.017606,0.023051,-0.017856,-0.020078,0.003669,0.050938,0.00399,-0.021804,0.000635,0.031868,0.021935,-0.023622,-0.01439,-0.002474,-0.000875,0.016106,-0.006849,0.015938,0.003745,0.056017,0.017154,0.016015,-0.001265,0.008778,-0.004934,-0.005585,-0.015576,0.009818,-0.006629,-0.006236,0.007993,-0.002403,-0.005661,-0.001863,-0.009854,-0.001746,-0.022118,-0.015849,-0.00624,0.026203,0.01742,-0.011858,-0.000247,-0.016407,-0.023719,0.002024,-0.002714,-0.011953,0.016529,-0.012678,0.039462,0.005369,0.022397,0.021593,-0.019179,-0.019403,-0.009669,0.017954,-0.014387,-0.038972,0.001485,0.001608,-0.009696,0.00705,-0.028146,0.011698,0.001758,-0.029767,-0.011605,-0.027398,-0.000485,0.017759,0.000786,-0.036712,-0.005355],[0.000142,0.009238,0.007961,-0.009609,-0.004893,-0.000546,0.003274,-0.015507,0.007307,-0.000382,0.005788,0.045278,-0.020676,0.007242,0.006125,-0.00258,-0.003273,0.018987,-0.002081,-0.010331,-0.012961,-0.011087,0.008131,-0.011278,-0.000238,-0.01156,0.011671,-0.009725,-0.012485,0.006955,-0.008467,0.023014,-0.004234,0.047803,0.019872,-0.000613,0.022082,-0.023527,0.002636,-0.01764,-0.004814,-0.039196,-0.020972,-0.003973,0.018084,-0.043409,-0.006813,-0.031302,-0.006075,-0.018254,0.020803,0.030393,0.014052,-0.01891,0.000371,0.016361,-0.038062,0.006451,-0.010372,-0.010644,0.050387,-0.016257,-0.011535,-0.007502,0.014664,-0.011019,0.001219,0.006913,-0.019224,0.016427,0.013886,0.018156,-0.006577,-0.014117,0.026632,0.009847,-0.010417,-0.012672,0.006531,-0.005288,0.036734,-0.003939,0.002005,0.009719,-0.009799,0.011837,-0.009497,-0.001151,-0.020853,0.002431,-0.00842,0.002984,0.003582,-0.008865,-0.003012,-0.010654,-0.023547,0.020904,0.024252,0.030094,-0.015907,-0.040935,0.00604,-0.014583,-0.009346,0.013773,-0.008668,-0.015612,0.016563,0.028184,-0.006159,0.00872],[0.014425,0.003282,0.012334,0.001486,-0.001239,0.018329,0.016312,0.017934,0.013886,0.007342,0.0124,-0.010913,-0.017653,-0.004972,0.016831,-0.014212,-0.016405,0.00607,0.003904,-0.008149,-0.007528,0.00222,-0.014589,0.029988,0.012915,0.000137,0.007446,-0.003386,-0.004889,0.018223,0.000547,0.028041,0.01503,-0.006279,0.021143,0.010016,-0.040106,0.009782,-0.033338,-0.010902,0.009114,-0.005375,-0.037374,0.016482,-0.010375,-0.017066,-0.001344,-0.010053,0.003931,0.003291,-4.5e-05,-0.001848,0.039654,-0.006383,-0.023408,-0.0084,0.040253,-0.008665,-0.020692,0.029086,-0.00286,-0.011985,0.020739,-0.020866,0.000962,-0.003733,0.010773,0.001639,-0.008139,-0.011456,-0.022665,-0.004944,-0.003199,0.001054,-0.030491,0.013897,0.002755,-0.018433,0.005961,0.013573,7.6e-05,-0.038162,-0.01045,0.016326,-0.003563,-0.012109,-0.019457,0.010915,-0.007557,-0.015215,-0.021775,0.018911,0.013903,0.001066,0.003298,-0.003396,0.023867,0.002527,0.03692,0.009897,0.008721,0.006349,0.008843,0.015801,0.026519,-0.006619,-0.032366,-0.00307,-0.047336,-0.043326,-0.048,-0.015901],[-0.007657,-0.012218,0.001392,0.00985,0.020624,0.014489,-0.008045,0.017667,0.004293,0.031429,0.02543,-0.020705,-0.022514,-0.004306,0.009166,-0.010302,0.021697,0.016761,-0.01198,0.011082,-0.015546,-0.003996,-0.030817,-0.04461,0.018385,0.010096,0.017331,-0.011239,-0.020576,0.01841,-0.012843,0.032734,-0.006298,0.034349,0.022117,0.009117,0.013671,-0.017052,-0.001627,-0.009953,0.009309,-0.008074,-0.01368,-0.010848,0.00612,0.007052,-0.013534,0.004558,-0.011493,0.027324,0.037646,-0.007418,0.033328,0.00563,0.014197,0.019715,0.007412,0.010537,0.02761,-0.011668,-0.011451,-0.032902,0.018365,-0.035349,0.029379,0.002364,0.01393,-0.001806,-0.010319,0.020566,-0.024055,-0.00785,-0.014669,0.006639,-0.011969,-0.018926,0.011397,-0.012072,-0.051714,-0.046934,0.005688,-0.008509,0.003087,0.021765,0.014493,-0.02677,-0.00733,-0.022393,-0.00505,0.01121,-0.018683,-0.010118,-0.002995,0.016313,-0.013824,0.002143,0.009313,-0.007218,-0.013839,-0.011258,-0.030018,0.05802,0.063169,0.009741,0.017753,0.019979,0.020458,-0.012882,0.014534,-0.029638,0.011234,-0.032995],[-0.01155,-0.034461,-0.004378,-0.007791,0.007967,-0.0006,0.009798,-0.000315,0.005727,-0.0165,-0.035336,-0.019064,-0.009313,-0.005199,0.012172,0.000746,-0.03135,0.004627,-0.016813,-0.009714,0.016068,-0.003523,0.003542,0.001159,0.011618,0.01001,0.03076,0.006493,-0.013385,0.01508,-0.007501,-0.03377,-0.028234,-0.01176,-0.01949,-0.001854,0.001565,-0.031661,-0.00456,0.002412,-0.003448,0.034912,0.026096,0.006659,0.008873,-0.001528,0.006403,0.003743,-0.027652,0.008406,0.01809,0.005239,-0.027523,-0.023867,0.004741,-0.007242,-0.020883,0.005859,-0.010282,0.006226,0.022996,0.00406,-0.017347,0.00458,-0.02524,-0.008888,0.008767,0.006258,-0.00887,0.004975,0.007634,-8.8e-05,0.003089,-0.002652,-0.016079,-0.012348,-0.014638,0.010379,0.004157,-0.001624,-0.002301,-0.020787,0.021786,0.011049,0.024955,-0.006149,0.0075,-0.009587,-0.005683,-0.006273,0.03985,0.009005,-0.012489,-0.010417,0.009538,-0.011513,-0.002492,-0.000349,-0.033435,-0.013538,0.010195,-0.015295,0.023955,-0.029271,0.008611,0.008174,0.026407,-0.022552,-0.027229,-0.002477,0.004793,-0.013398],[0.011721,0.007838,-0.005495,0.000834,0.002499,0.019356,0.000419,0.004112,-0.008415,-0.001027,0.012246,-0.025536,-0.012089,0.036779,-0.016427,-0.011382,-0.008333,-0.001953,-0.006678,-0.002509,-0.014359,0.004035,-0.047912,-0.016517,-0.011906,0.027745,0.018387,0.010433,-0.024042,-0.006695,-0.00118,-0.006691,-0.035144,-0.019365,-0.019146,0.013695,0.013605,-0.015763,-0.001448,-0.022132,-0.001796,0.004678,-0.029895,-0.001756,0.017872,-0.0017,0.006806,0.0305,-0.006246,-0.006854,-0.004737,-0.035108,0.017129,-0.007392,0.004532,-0.001403,-0.004462,0.011159,0.015044,0.009155,0.022038,-0.032418,0.002635,-0.032729,0.004868,-0.012324,-0.002775,0.004323,0.010169,-0.035654,-0.016232,-0.015594,-0.016442,-0.008307,-0.00828,-0.041501,-0.002846,-0.015334,-0.014894,0.006647,0.016264,0.011521,-0.012293,-0.002413,0.009983,0.000356,-0.002891,-0.006899,0.035716,-0.006544,0.010993,-0.006396,-0.016901,0.013116,-0.000582,-0.017076,-0.015353,0.039382,-0.000409,0.017815,0.003435,0.000232,0.011293,-0.031424,-0.004013,-0.021651,0.025293,-0.029956,-0.001719,-0.009955,0.000752,-0.037584],[-0.031823,-0.016078,0.047607,0.017764,0.022254,0.014996,-0.009453,0.037503,-0.000734,0.020524,0.028914,-0.030521,-0.006957,0.015584,0.010792,-0.019889,0.011761,-0.020029,-0.01641,0.015147,0.016622,-0.007235,-0.047548,-0.026864,-0.00652,0.002798,-0.003891,2.8e-05,-0.012262,0.035103,0.01801,-0.003993,0.005164,0.01208,0.014687,-0.004324,0.00261,-0.041187,-0.014915,-0.026254,0.020199,-0.014798,-0.041646,-0.027679,-0.002156,0.00299,-0.013803,-0.00944,-0.006933,0.028781,0.028397,0.008072,-0.006065,-0.005177,0.000615,0.024432,-0.018759,-0.036079,0.018621,-0.011709,-0.005132,-0.039323,0.029042,-0.022159,0.003989,0.01931,0.019971,0.009,-0.0243,0.0012,-0.031212,-0.010174,-0.017356,0.017362,0.000356,-0.020345,0.002964,-0.033757,-0.036263,-0.035215,0.029945,0.020134,-0.036033,0.002432,-0.022803,-0.004692,-0.027165,-0.020714,0.009685,-0.018031,-0.019975,0.020605,-0.021701,0.027651,-0.002106,-0.027325,-0.008119,-0.012907,0.009564,0.006992,0.012497,0.033121,0.033863,0.019893,-0.00975,0.007329,0.004168,0.004383,-0.015883,-0.005368,0.057801,-0.009936],[-0.036129,-0.018478,0.017625,0.023326,0.000797,-0.014898,0.017317,0.001561,0.018522,0.001771,0.010944,-0.008263,-0.001852,-0.005246,0.004836,-0.02822,-0.004329,-0.009088,0.004008,0.004493,-0.009042,-0.029611,-0.013186,-0.001237,0.013222,0.001401,0.001224,0.002659,0.005575,-0.000169,0.007382,-0.004551,0.019587,0.029255,0.012694,-0.008787,0.015031,-0.003928,0.025583,7e-05,0.001956,-4.6e-05,-0.007949,0.001015,-0.026113,0.015698,-0.039628,0.001396,-0.01724,-0.003544,-0.004272,0.012663,-0.003579,0.027647,-0.004659,-0.003477,-0.002378,-0.003916,0.004371,-0.019609,-0.025646,-0.002204,0.027495,0.013118,0.00311,0.023125,0.012415,0.001966,0.020319,-0.021913,-0.015093,-0.008731,-0.003534,0.029609,0.00238,0.015207,0.001451,0.000194,0.006135,-0.054288,0.002286,0.017078,0.014391,0.004841,0.024386,-0.000786,0.007025,0.003225,-0.016945,-0.011071,0.008586,0.00863,0.019173,0.000329,0.014567,0.006578,-0.003664,-0.028088,0.025885,-0.012269,0.003416,-0.000572,-0.002757,0.022549,-0.007791,-0.014216,-0.017932,-0.002825,0.008595,0.010474,-0.011701,0.013856],[0.009713,-0.023738,0.031809,0.026519,0.018957,0.002428,-0.01317,0.023206,-0.020775,0.019727,0.003166,0.007515,-0.020259,0.012283,0.008821,-0.002089,0.037238,-0.001581,-0.008749,0.000333,0.0098,-0.021158,-0.011318,-0.01584,0.005478,-0.017022,-0.024805,-0.005337,0.019673,0.005992,0.003402,0.01301,-0.006401,0.02549,0.014278,0.024046,-0.004985,-0.018331,-0.038792,0.015706,0.003742,-0.041917,-0.026917,-0.010882,-0.005788,-0.007511,-0.002192,-0.031287,0.001658,0.006365,-0.009573,-0.00562,0.018553,0.023405,-0.010725,0.017244,0.047112,-0.011423,0.008703,-0.012422,-0.018391,-0.003574,0.005802,0.012158,0.045495,0.03413,0.012876,-0.027173,-0.023004,0.033178,0.001364,0.005526,-0.013409,0.029855,0.016556,-0.002777,-0.011319,-0.015387,-0.019268,0.003826,0.001039,0.06015,-0.010405,0.017851,-0.008558,-0.02201,-0.007608,-0.015008,-0.022111,-0.002366,-0.024163,-0.023319,0.012937,0.005873,-0.017811,-0.000395,0.011226,0.000653,0.029992,0.015215,-0.023879,0.025647,-0.01719,0.0393,0.014113,0.031004,0.025496,0.011522,0.030162,-0.043471,0.021585,0.010431],[-0.014862,0.015194,-0.019732,-0.018884,-0.027405,-0.011616,0.019431,0.006798,0.01802,-0.010014,0.020555,-0.003264,-0.004714,-0.014269,0.014127,0.001646,-0.00121,0.013149,0.007507,-0.011195,0.010092,-0.010425,0.013301,-0.000497,0.002907,-0.007584,0.000934,0.010281,0.01805,-0.016149,0.005118,0.012642,0.011253,-0.012727,0.006084,0.007982,-0.022383,0.006467,-0.000803,0.00103,-0.008654,-0.011657,-0.01841,-0.016637,-0.024654,0.025971,-0.005738,0.004819,0.013144,-0.019144,-0.009448,-0.011739,-0.00542,0.026026,0.009222,0.009228,0.017269,0.003188,-0.013978,0.008699,-0.015468,0.016929,-0.025691,0.005603,0.023924,0.000778,-0.000384,0.005704,-0.009182,0.008565,0.007653,-0.007238,0.000587,-0.025346,0.009971,0.032694,-0.017082,0.025691,0.018122,0.033822,-0.015405,0.014612,-0.010879,0.002168,0.0091,0.011781,0.003226,0.005241,-0.000711,-0.005203,0.016653,0.00505,-0.002677,0.018996,0.001928,0.006907,-0.00528,-0.010664,-0.023268,0.008978,-0.004296,-0.007854,-0.000936,0.006926,0.010311,-0.002247,-0.019223,0.014294,-0.004427,-0.012678,-0.026766,-0.005774],[-0.002295,0.030559,0.014589,0.010039,-0.011291,-0.011841,0.000402,0.002733,-0.003406,-0.020016,-0.005211,0.038569,0.010393,0.00708,0.005761,0.022858,-0.001202,0.020425,0.02237,-0.024823,0.025763,0.020309,0.003231,-0.024371,0.015129,0.003381,0.010351,0.002117,-0.004639,-0.004618,0.000939,0.002204,0.012235,0.023393,0.014829,-0.006626,0.006725,0.015598,0.012031,-0.000697,0.00763,0.017481,0.018952,0.025174,-0.017551,0.006094,-0.001441,-0.009997,-0.00249,-0.005406,-0.017431,0.001506,0.005731,-0.002606,0.003336,-0.002703,0.015436,0.014575,-0.002334,-0.003014,-0.005794,0.02392,-0.004075,0.017765,0.015647,-0.014602,-0.001937,0.010942,0.002663,-0.003761,0.006265,-0.015288,0.006056,-0.015051,-0.013816,0.020894,-0.025987,0.012366,0.013866,-0.00587,0.002603,-0.008913,0.001413,-0.000982,-0.012511,0.010508,-0.000353,0.002831,-0.00195,0.021827,0.011965,-8.7e-05,0.010292,0.001333,0.006284,-0.00544,0.003321,0.006453,-0.01733,0.009039,0.020418,0.036972,-0.040245,-0.015759,-0.003571,-0.008489,-0.022982,-0.024418,-0.014444,-0.008162,-0.000382,-0.011249],[-0.032327,0.031193,0.002143,-0.009922,-0.021176,-0.017681,-0.005124,0.001711,-0.010923,0.01315,0.00675,0.012594,-0.0007,-0.01737,0.013824,0.0048,0.011377,0.008331,-0.008625,-0.031613,-0.02548,-0.005027,-0.028252,-0.018088,0.010812,-0.019994,0.009054,0.003001,0.000469,-0.015225,-0.00023,0.024961,-0.016427,-0.005473,0.018469,-0.001806,-0.014672,0.002225,-0.003452,0.006557,0.018815,-0.021425,-0.021795,0.020572,-0.020149,0.010449,-0.001979,0.007568,0.02306,0.000758,0.035251,0.014593,-0.024704,0.006082,-0.016858,0.003324,0.0029,0.020453,0.011728,0.021517,0.00592,0.02137,0.001947,0.014372,-0.030407,-0.010049,-0.023147,-0.007259,-0.006602,-0.016713,-0.01656,0.013432,0.018897,0.003589,0.018652,0.007731,0.003705,-0.014442,0.003156,0.017192,-0.013386,-0.013038,-0.020267,0.000531,-0.013505,0.005562,0.003103,-0.002056,0.019191,-0.015807,0.017733,0.004177,0.004295,0.003163,-0.003689,-0.008055,0.003065,-0.009457,-0.024271,-0.025512,0.016305,-0.019504,-0.001993,-0.007859,-0.013044,0.01763,0.024669,-0.02957,0.011527,-0.041399,-0.021352,0.018063],[0.024446,-0.009925,0.00774,0.026755,-0.001199,0.023384,0.006978,-0.006233,-0.011559,-0.007198,-0.007163,-0.003198,-0.003784,0.004788,-0.007585,-0.007635,-0.008012,8.3e-05,-0.017713,-0.013782,0.016768,-0.001155,-0.005309,-0.007871,0.001789,-0.014423,-0.025462,-0.008731,-0.008262,-0.013809,0.011234,-0.003306,0.022537,0.021533,0.005316,0.00147,0.019481,0.009321,-0.036564,0.00218,0.023489,0.015356,-0.00543,0.008048,-0.017886,-0.001554,0.004372,-0.008771,-0.023768,0.018076,-0.002093,-0.007716,-0.036955,-0.017069,-0.027849,-0.009099,-0.060648,-0.001805,0.002552,0.001235,0.003657,-0.016621,0.020258,0.008495,0.007991,0.013546,0.007313,-0.002692,0.025909,0.024194,0.002325,0.002794,0.015447,0.013168,-0.011527,-0.008785,0.036473,-0.017526,-0.005391,0.021112,0.005651,0.003744,-0.004703,0.013999,-0.013617,0.006479,0.014145,-0.026621,-0.008681,-0.003109,-0.020621,-0.012568,-0.011217,-0.021951,0.006165,-0.010988,-0.012242,-0.010825,-0.002784,-0.033855,0.009746,-0.004292,-0.022254,0.026107,-0.004198,0.015287,-0.005735,0.036173,-0.003367,-0.016612,0.010315,0.008626],[-0.022705,0.000279,-0.0001,0.010748,-0.004177,0.0027,0.00353,0.004914,-0.003758,0.007141,-0.007793,0.032494,0.006818,-0.017692,-0.000211,-0.013772,0.01482,0.021183,-8.5e-05,-0.019084,0.001656,0.020596,0.028778,-0.003705,0.002849,-0.00252,-0.011497,0.057799,0.03719,-0.007008,-0.015544,-0.009638,-0.018681,0.015422,0.012322,0.013961,-0.0276,-0.014154,0.011137,0.005108,-0.021451,-0.006928,0.035112,0.01773,-0.022309,0.008227,0.01093,-0.021448,0.017266,0.018127,-0.01425,0.003922,-0.039992,0.003224,-0.031984,0.011149,-0.022672,-0.004802,-0.004821,-0.032351,0.022129,0.019988,-0.025504,0.013037,0.021049,-0.016352,-0.000783,-0.005279,-0.026946,5e-06,0.010599,-0.014038,0.004243,0.00649,-0.01795,0.022242,-0.018467,0.011273,0.012237,0.005572,-0.008825,-0.007484,-0.014367,0.007257,-0.026966,0.010832,0.011564,0.024414,-0.01084,0.002062,-0.010971,0.001649,0.020127,-0.003579,0.000223,0.002981,0.009263,-0.012415,0.019758,0.015737,-0.01233,-0.010864,0.016907,0.047671,0.019884,0.028248,0.01252,-0.008899,0.014365,-0.000187,-0.006231,0.031708],[0.017603,-0.012684,-0.028998,-0.012798,0.009933,0.004889,0.011664,-0.017111,0.005904,-0.018259,0.015768,0.026851,0.027396,-0.018186,0.015295,-0.002769,-0.017461,-0.016209,-0.000447,0.012813,-0.008806,-0.007372,0.020616,0.020888,0.015645,0.001065,-0.012358,0.010198,0.013597,-0.021124,0.030997,-0.03377,0.005344,-0.032581,-0.03455,0.004687,-0.002438,0.025401,0.004631,-0.010359,0.0103,-0.000977,-0.001009,0.008632,-0.011067,-0.013119,0.028836,-0.008785,0.017418,0.025876,0.012004,0.010641,-0.014135,0.015744,-0.008022,0.02884,0.022326,-0.011558,0.01046,-0.000139,-0.029091,-0.001376,0.010229,0.014501,-0.005569,0.003212,-0.000288,0.006246,-0.012981,0.011067,0.008128,-0.003456,-0.012439,-0.001565,0.004094,0.015498,-0.008494,-0.000364,0.014474,0.03293,0.001359,0.011663,0.039764,0.006277,-0.0306,0.000706,-0.001188,0.013949,-0.00131,-0.010837,0.001047,0.026009,0.013466,0.000116,0.001462,0.014399,0.001645,-0.003767,-0.014663,0.012623,0.024829,-0.002607,0.006845,-0.001044,-0.022672,0.038136,0.016133,0.008921,-0.046284,0.015372,-0.023424,0.004772],[0.013908,0.035736,-0.019254,0.005156,0.00461,-0.019974,0.008456,-0.028211,-0.009124,-0.012033,0.01425,0.017877,0.008503,0.008166,0.025837,0.034415,-0.036436,0.009369,-0.008034,0.028278,0.005611,-0.017622,-0.004726,0.022179,-0.003635,0.019249,0.011183,0.004085,-0.008469,0.001319,-0.000266,0.010932,-0.000785,-0.001759,0.016538,0.012246,-0.003591,0.029351,0.033309,-0.012575,0.018018,0.007682,0.0143,0.01771,0.014489,-0.003304,0.019037,0.001442,0.008585,-0.025777,-0.008577,-0.013544,-0.009335,-0.000767,0.014603,0.003263,-0.000139,0.021013,-0.00291,0.021733,-0.009062,